<?xml version="1.0"?>
<MethodSetup Method="BDT::BDT">
  <GeneralInfo>
    <Info name="TMVA Release" value="4.2.0 [262656]"/>
    <Info name="ROOT Release" value="5.34/04 [336388]"/>
    <Info name="Creator" value="dsg12"/>
    <Info name="Date" value="Tue Jan 26 14:58:08 2016"/>
    <Info name="Host" value="Linux hepadmin.hep.ph.ic.ac.uk 2.6.32-279.14.1.el6.x86_64 #1 SMP Tue Nov 6 23:43:09 UTC 2012 x86_64 x86_64 x86_64 GNU/Linux"/>
    <Info name="Dir" value="/home/hep/dsg12/mproject/ICMSciThesisHiggsInv"/>
    <Info name="Training events" value="5661"/>
    <Info name="TrainingTime" value="2.15340137e-01"/>
    <Info name="AnalysisType" value="Classification"/>
  </GeneralInfo>
  <Options>
    <Option name="V" modified="Yes">False</Option>
    <Option name="VerbosityLevel" modified="No">Default</Option>
    <Option name="VarTransform" modified="No">None</Option>
    <Option name="H" modified="Yes">False</Option>
    <Option name="CreateMVAPdfs" modified="No">False</Option>
    <Option name="IgnoreNegWeightsInTraining" modified="No">False</Option>
    <Option name="NTrees" modified="Yes">10</Option>
    <Option name="MaxDepth" modified="Yes">3</Option>
    <Option name="MinNodeSize" modified="Yes">2.5%</Option>
    <Option name="nCuts" modified="Yes">30</Option>
    <Option name="BoostType" modified="Yes">AdaBoost</Option>
    <Option name="AdaBoostR2Loss" modified="No">quadratic</Option>
    <Option name="UseBaggedBoost" modified="Yes">True</Option>
    <Option name="Shrinkage" modified="No">1.000000e+00</Option>
    <Option name="AdaBoostBeta" modified="Yes">5.000000e-01</Option>
    <Option name="UseRandomisedTrees" modified="No">False</Option>
    <Option name="UseNvars" modified="No">6</Option>
    <Option name="UsePoissonNvars" modified="No">True</Option>
    <Option name="BaggedSampleFraction" modified="Yes">5.000000e-01</Option>
    <Option name="UseYesNoLeaf" modified="No">True</Option>
    <Option name="NegWeightTreatment" modified="No">inverseboostnegweights</Option>
    <Option name="Css" modified="No">1.000000e+00</Option>
    <Option name="Cts_sb" modified="No">1.000000e+00</Option>
    <Option name="Ctb_ss" modified="No">1.000000e+00</Option>
    <Option name="Cbb" modified="No">1.000000e+00</Option>
    <Option name="NodePurityLimit" modified="No">5.000000e-01</Option>
    <Option name="SeparationType" modified="Yes">giniindex</Option>
    <Option name="DoBoostMonitor" modified="No">False</Option>
    <Option name="UseFisherCuts" modified="No">False</Option>
    <Option name="MinLinCorrForFisher" modified="No">8.000000e-01</Option>
    <Option name="UseExclusiveVars" modified="No">False</Option>
    <Option name="DoPreselection" modified="No">False</Option>
    <Option name="SigToBkgFraction" modified="No">1.000000e+00</Option>
    <Option name="PruneMethod" modified="No">nopruning</Option>
    <Option name="PruneStrength" modified="No">0.000000e+00</Option>
    <Option name="PruningValFraction" modified="No">5.000000e-01</Option>
    <Option name="nEventsMin" modified="No">0</Option>
    <Option name="UseBaggedGrad" modified="No">False</Option>
    <Option name="GradBaggingFraction" modified="No">5.000000e-01</Option>
    <Option name="UseNTrainEvents" modified="No">0</Option>
    <Option name="NNodesMax" modified="No">0</Option>
  </Options>
  <Variables NVar="37">
    <Variable VarIndex="0" Expression="dijet_deta" Label="dijet_deta" Title="Dijet #Delta#eta" Unit="" Internal="dijet_deta" Type="F" Min="4.20014095e+00" Max="7.98615837e+00"/>
    <Variable VarIndex="1" Expression="forward_tag_eta" Label="forward_tag_eta" Title="Forward Tag #eta" Unit="" Internal="forward_tag_eta" Type="F" Min="-4.69821596e+00" Max="4.67679548e+00"/>
    <Variable VarIndex="2" Expression="metnomu_significance" Label="metnomu_significance" Title="MET Significance (No Muons)" Unit="" Internal="metnomu_significance" Type="F" Min="3.50013852e+00" Max="8.26521072e+01"/>
    <Variable VarIndex="3" Expression="sqrt_ht" Label="sqrt_ht" Title="Square Root HCAL Scalar Sum of Energy" Unit="GeV^{0.5}" Internal="sqrt_ht" Type="F" Min="8.17473888e+00" Max="2.66764717e+01"/>
    <Variable VarIndex="4" Expression="alljetsmetnomu_mindphi" Label="alljetsmetnomu_mindphi" Title="All Jets - MET Min. #Delta#phi (No Muons)" Unit="" Internal="alljetsmetnomu_mindphi" Type="F" Min="2.00026941e+00" Max="2.99989033e+00"/>
    <Variable VarIndex="5" Expression="dijet_M" Label="dijet_M" Title="Dijet Mass" Unit="GeV" Internal="dijet_M" Type="F" Min="2.58105652e+02" Max="4.27894238e+03"/>
    <Variable VarIndex="6" Expression="metnomuons" Label="metnomuons" Title="MET (No Muons)" Unit="GeV" Internal="metnomuons" Type="F" Min="2.32741108e+01" Max="6.68498352e+02"/>
    <Variable VarIndex="7" Expression="jet1_E" Label="jet1_E" Title="Jet1E" Unit="GeV" Internal="jet1_E" Type="F" Min="5.01926003e+01" Max="3.54335352e+03"/>
    <Variable VarIndex="8" Expression="jet2_E" Label="jet2_E" Title="Jet2E" Unit="GeV" Internal="jet2_E" Type="F" Min="4.51579933e+01" Max="3.25435913e+03"/>
    <Variable VarIndex="9" Expression="jet1_pt" Label="jet1_pt" Title="jet1_pt" Unit="" Internal="jet1_pt" Type="F" Min="3.15231438e+01" Max="5.29926514e+02"/>
    <Variable VarIndex="10" Expression="jet2_pt" Label="jet2_pt" Title="jet2_pt" Unit="" Internal="jet2_pt" Type="F" Min="3.00040665e+01" Max="2.31104233e+02"/>
    <Variable VarIndex="11" Expression="jet1_eta" Label="jet1_eta" Title="jet1_eta" Unit="" Internal="jet1_eta" Type="F" Min="-4.50705051e+00" Max="4.61924410e+00"/>
    <Variable VarIndex="12" Expression="jet2_eta" Label="jet2_eta" Title="jet2_eta" Unit="" Internal="jet2_eta" Type="F" Min="-4.69821596e+00" Max="4.67679548e+00"/>
    <Variable VarIndex="13" Expression="jet1_phi" Label="jet1_phi" Title="jet1_phi" Unit="" Internal="jet1_phi" Type="F" Min="-3.14112663e+00" Max="3.14023948e+00"/>
    <Variable VarIndex="14" Expression="jet2_phi" Label="jet2_phi" Title="jet2_phi" Unit="" Internal="jet2_phi" Type="F" Min="-3.14123821e+00" Max="3.14072704e+00"/>
    <Variable VarIndex="15" Expression="jet_csv1" Label="jet_csv1" Title="jet_csv1" Unit="" Internal="jet_csv1" Type="F" Min="-1.00000000e+00" Max="9.99998808e-01"/>
    <Variable VarIndex="16" Expression="jet_csv2" Label="jet_csv2" Title="jet_csv2" Unit="" Internal="jet_csv2" Type="F" Min="-1.00000000e+00" Max="8.50831270e-01"/>
    <Variable VarIndex="17" Expression="dijet_dphi" Label="dijet_dphi" Title="dijet_dphi" Unit="" Internal="dijet_dphi" Type="F" Min="1.71661377e-05" Max="2.19883633e+00"/>
    <Variable VarIndex="18" Expression="metnomu_x" Label="metnomu_x" Title="metnomu_x" Unit="" Internal="metnomu_x" Type="F" Min="-5.03073517e+02" Max="4.42795685e+02"/>
    <Variable VarIndex="19" Expression="metnomu_y" Label="metnomu_y" Title="metnomu_y" Unit="" Internal="metnomu_y" Type="F" Min="-4.75533875e+02" Max="5.03169708e+02"/>
    <Variable VarIndex="20" Expression="sumet" Label="sumet" Title="sumet" Unit="" Internal="sumet" Type="F" Min="1.25958420e+02" Max="2.81918066e+03"/>
    <Variable VarIndex="21" Expression="mht" Label="mht" Title="mht" Unit="" Internal="mht" Type="F" Min="4.39786148e+01" Max="3.54243652e+03"/>
    <Variable VarIndex="22" Expression="unclustered_et" Label="unclustered_et" Title="unclustered_et" Unit="" Internal="unclustered_et" Type="F" Min="1.88566935e+00" Max="3.23643750e+03"/>
    <Variable VarIndex="23" Expression="jetmet_mindphi" Label="jetmet_mindphi" Title="jetmet_mindphi" Unit="" Internal="jetmet_mindphi" Type="F" Min="8.30441422e-05" Max="3.11834621e+00"/>
    <Variable VarIndex="24" Expression="jetunclet_mindphi" Label="jetunclet_mindphi" Title="jetunclet_mindphi" Unit="" Internal="jetunclet_mindphi" Type="F" Min="3.51987983e-05" Max="3.05589819e+00"/>
    <Variable VarIndex="25" Expression="metnomuunclet_dphi" Label="metnomuunclet_dphi" Title="metnomuunclet_dphi" Unit="" Internal="metnomuunclet_dphi" Type="F" Min="9.21122322e-04" Max="3.14155293e+00"/>
    <Variable VarIndex="26" Expression="dijetmetnomu_vectorialSum_pt" Label="dijetmetnomu_vectorialSum_pt" Title="dijetmetnomu_vectorialSum_pt" Unit="" Internal="dijetmetnomu_vectorialSum_pt" Type="F" Min="1.59276322e-01" Max="2.08457581e+02"/>
    <Variable VarIndex="27" Expression="dijetmetnomu_ptfraction" Label="dijetmetnomu_ptfraction" Title="dijetmetnomu_ptfraction" Unit="" Internal="dijetmetnomu_ptfraction" Type="F" Min="2.11141825e-01" Max="7.86611855e-01"/>
    <Variable VarIndex="28" Expression="jet1metnomu_scalarprod" Label="jet1metnomu_scalarprod" Title="jet1metnomu_scalarprod" Unit="" Internal="jet1metnomu_scalarprod" Type="F" Min="-4.78266367e+04" Max="-1.79804859e+01"/>
    <Variable VarIndex="29" Expression="jet2metnomu_scalarprod" Label="jet2metnomu_scalarprod" Title="jet2metnomu_scalarprod" Unit="" Internal="jet2metnomu_scalarprod" Type="F" Min="-3.89484570e+04" Max="-1.29739094e+01"/>
    <Variable VarIndex="30" Expression="n_jets_cjv_30" Label="n_jets_cjv_30" Title="n_jets_cjv_30" Unit="" Internal="n_jets_cjv_30" Type="F" Min="0.00000000e+00" Max="3.00000000e+00"/>
    <Variable VarIndex="31" Expression="n_jets_cjv_20EB_30EE" Label="n_jets_cjv_20EB_30EE" Title="n_jets_cjv_20EB_30EE" Unit="" Internal="n_jets_cjv_20EB_30EE" Type="F" Min="0.00000000e+00" Max="5.00000000e+00"/>
    <Variable VarIndex="32" Expression="n_jets_15" Label="n_jets_15" Title="n_jets_15" Unit="" Internal="n_jets_15" Type="F" Min="2.00000000e+00" Max="1.20000000e+01"/>
    <Variable VarIndex="33" Expression="n_jets_30" Label="n_jets_30" Title="n_jets_30" Unit="" Internal="n_jets_30" Type="F" Min="2.00000000e+00" Max="5.00000000e+00"/>
    <Variable VarIndex="34" Expression="cjvjetpt" Label="cjvjetpt" Title="cjvjetpt" Unit="" Internal="cjvjetpt" Type="F" Min="-1.00000000e+00" Max="1.22264946e+02"/>
    <Variable VarIndex="35" Expression="l1met" Label="l1met" Title="l1met" Unit="" Internal="l1met" Type="F" Min="9.99999997e-07" Max="2.04750000e+03"/>
    <Variable VarIndex="36" Expression="n_vertices" Label="n_vertices" Title="n_vertices" Unit="" Internal="n_vertices" Type="F" Min="1.00000000e+00" Max="4.20000000e+01"/>
  </Variables>
  <Spectators NSpec="0"/>
  <Classes NClass="2">
    <Class Name="Background" Index="0"/>
    <Class Name="Signal" Index="1"/>
  </Classes>
  <Transformations NTransformations="0"/>
  <MVAPdfs/>
  <Weights NTrees="10" AnalysisType="0">
    <BinaryTree type="DecisionTree" boostWeight="1.2984521730585337e+00" itree="0">
      <Node pos="s" depth="0" NCoef="0" IVar="25" Cut="2.7362201213836670e+00" cType="1" res="-9.9000000000000000e+01" rms="0.0000000000000000e+00" purity="4.8938834667205811e-01" nType="0">
        <Node pos="l" depth="1" NCoef="0" IVar="-1" Cut="2.0479862213134766e+01" cType="1" res="-9.9000000000000000e+01" rms="0.0000000000000000e+00" purity="9.2070001363754272e-01" nType="1"/>
        <Node pos="r" depth="1" NCoef="0" IVar="22" Cut="1.0718244934082031e+02" cType="1" res="-9.9000000000000000e+01" rms="0.0000000000000000e+00" purity="8.0116353929042816e-02" nType="0">
          <Node pos="l" depth="2" NCoef="0" IVar="-1" Cut="0.0000000000000000e+00" cType="1" res="-9.9000000000000000e+01" rms="0.0000000000000000e+00" purity="9.1202586889266968e-01" nType="1"/>
          <Node pos="r" depth="2" NCoef="0" IVar="-1" Cut="5.0072479248046875e-01" cType="0" res="-9.9000000000000000e+01" rms="0.0000000000000000e+00" purity="2.4339573457837105e-02" nType="-1"/>
        </Node>
      </Node>
    </BinaryTree>
    <BinaryTree type="DecisionTree" boostWeight="8.4718712189458123e-01" itree="1">
      <Node pos="s" depth="0" NCoef="0" IVar="25" Cut="2.3313186168670654e+00" cType="1" res="-9.9000000000000000e+01" rms="0.0000000000000000e+00" purity="4.7147059440612793e-01" nType="0">
        <Node pos="l" depth="1" NCoef="0" IVar="2" Cut="4.5246167182922363e+00" cType="0" res="-9.9000000000000000e+01" rms="0.0000000000000000e+00" purity="7.9589951038360596e-01" nType="0">
          <Node pos="l" depth="2" NCoef="0" IVar="-1" Cut="9.6774190664291382e-02" cType="1" res="-9.9000000000000000e+01" rms="0.0000000000000000e+00" purity="8.7216502428054810e-01" nType="1"/>
          <Node pos="r" depth="2" NCoef="0" IVar="26" Cut="2.6225498199462891e+01" cType="1" res="-9.9000000000000000e+01" rms="0.0000000000000000e+00" purity="6.0032755136489868e-01" nType="0">
            <Node pos="l" depth="3" NCoef="0" IVar="-1" Cut="0.0000000000000000e+00" cType="1" res="-9.9000000000000000e+01" rms="0.0000000000000000e+00" purity="7.4563521146774292e-01" nType="1"/>
            <Node pos="r" depth="3" NCoef="0" IVar="-1" Cut="0.0000000000000000e+00" cType="1" res="-9.9000000000000000e+01" rms="0.0000000000000000e+00" purity="4.4433850049972534e-01" nType="-1"/>
          </Node>
        </Node>
        <Node pos="r" depth="1" NCoef="0" IVar="22" Cut="1.6351390075683594e+02" cType="1" res="-9.9000000000000000e+01" rms="0.0000000000000000e+00" purity="1.9332049787044525e-01" nType="0">
          <Node pos="l" depth="2" NCoef="0" IVar="21" Cut="2.8687643432617188e+02" cType="0" res="-9.9000000000000000e+01" rms="0.0000000000000000e+00" purity="5.9569609165191650e-01" nType="0">
            <Node pos="l" depth="3" NCoef="0" IVar="-1" Cut="0.0000000000000000e+00" cType="1" res="-9.9000000000000000e+01" rms="0.0000000000000000e+00" purity="8.0377668142318726e-01" nType="1"/>
            <Node pos="r" depth="3" NCoef="0" IVar="-1" Cut="0.0000000000000000e+00" cType="1" res="-9.9000000000000000e+01" rms="0.0000000000000000e+00" purity="3.2579791545867920e-01" nType="-1"/>
          </Node>
          <Node pos="r" depth="2" NCoef="0" IVar="-1" Cut="1.7255298614501953e+01" cType="1" res="-9.9000000000000000e+01" rms="0.0000000000000000e+00" purity="7.2902560234069824e-02" nType="-1"/>
        </Node>
      </Node>
    </BinaryTree>
    <BinaryTree type="DecisionTree" boostWeight="6.6997341396422194e-01" itree="2">
      <Node pos="s" depth="0" NCoef="0" IVar="28" Cut="-5.3273046875000000e+02" cType="0" res="-9.9000000000000000e+01" rms="0.0000000000000000e+00" purity="4.8316240310668945e-01" nType="0">
        <Node pos="l" depth="1" NCoef="0" IVar="29" Cut="-1.2256138610839844e+02" cType="0" res="-9.9000000000000000e+01" rms="0.0000000000000000e+00" purity="6.0577052831649780e-01" nType="0">
          <Node pos="l" depth="2" NCoef="0" IVar="-1" Cut="2.0479862213134766e+01" cType="1" res="-9.9000000000000000e+01" rms="0.0000000000000000e+00" purity="7.0207190513610840e-01" nType="1"/>
          <Node pos="r" depth="2" NCoef="0" IVar="-1" Cut="4.9111720919609070e-01" cType="0" res="-9.9000000000000000e+01" rms="0.0000000000000000e+00" purity="3.2293435186147690e-02" nType="-1"/>
        </Node>
        <Node pos="r" depth="1" NCoef="0" IVar="-1" Cut="0.0000000000000000e+00" cType="1" res="-9.9000000000000000e+01" rms="0.0000000000000000e+00" purity="0.0000000000000000e+00" nType="-1"/>
      </Node>
    </BinaryTree>
    <BinaryTree type="DecisionTree" boostWeight="5.0336602259310959e-01" itree="3">
      <Node pos="s" depth="0" NCoef="0" IVar="24" Cut="4.8208174109458923e-01" cType="0" res="-9.9000000000000000e+01" rms="0.0000000000000000e+00" purity="4.1187557578086853e-01" nType="0">
        <Node pos="l" depth="1" NCoef="0" IVar="9" Cut="1.6700595092773438e+02" cType="0" res="-9.9000000000000000e+01" rms="0.0000000000000000e+00" purity="6.1446553468704224e-01" nType="0">
          <Node pos="l" depth="2" NCoef="0" IVar="-1" Cut="0.0000000000000000e+00" cType="1" res="-9.9000000000000000e+01" rms="0.0000000000000000e+00" purity="9.9175912141799927e-01" nType="1"/>
          <Node pos="r" depth="2" NCoef="0" IVar="28" Cut="-1.5759367370605469e+02" cType="0" res="-9.9000000000000000e+01" rms="0.0000000000000000e+00" purity="5.4375231266021729e-01" nType="0">
            <Node pos="l" depth="3" NCoef="0" IVar="-1" Cut="0.0000000000000000e+00" cType="1" res="-9.9000000000000000e+01" rms="0.0000000000000000e+00" purity="6.0596770048141479e-01" nType="1"/>
            <Node pos="r" depth="3" NCoef="0" IVar="-1" Cut="0.0000000000000000e+00" cType="1" res="-9.9000000000000000e+01" rms="0.0000000000000000e+00" purity="8.8475927710533142e-02" nType="-1"/>
          </Node>
        </Node>
        <Node pos="r" depth="1" NCoef="0" IVar="26" Cut="1.8698421478271484e+01" cType="1" res="-9.9000000000000000e+01" rms="0.0000000000000000e+00" purity="2.2378650307655334e-01" nType="0">
          <Node pos="l" depth="2" NCoef="0" IVar="5" Cut="9.5198046875000000e+02" cType="0" res="-9.9000000000000000e+01" rms="0.0000000000000000e+00" purity="6.3238471746444702e-01" nType="0">
            <Node pos="l" depth="3" NCoef="0" IVar="-1" Cut="0.0000000000000000e+00" cType="1" res="-9.9000000000000000e+01" rms="0.0000000000000000e+00" purity="8.0907994508743286e-01" nType="1"/>
            <Node pos="r" depth="3" NCoef="0" IVar="-1" Cut="0.0000000000000000e+00" cType="1" res="-9.9000000000000000e+01" rms="0.0000000000000000e+00" purity="3.1674537062644958e-01" nType="-1"/>
          </Node>
          <Node pos="r" depth="2" NCoef="0" IVar="-1" Cut="1.0878237152099609e+02" cType="1" res="-9.9000000000000000e+01" rms="0.0000000000000000e+00" purity="8.3975277841091156e-02" nType="-1"/>
        </Node>
      </Node>
    </BinaryTree>
    <BinaryTree type="DecisionTree" boostWeight="4.5690198747981464e-01" itree="4">
      <Node pos="s" depth="0" NCoef="0" IVar="28" Cut="-5.3273046875000000e+02" cType="0" res="-9.9000000000000000e+01" rms="0.0000000000000000e+00" purity="3.9266577363014221e-01" nType="0">
        <Node pos="l" depth="1" NCoef="0" IVar="2" Cut="6.8665580749511719e+00" cType="0" res="-9.9000000000000000e+01" rms="0.0000000000000000e+00" purity="4.6141651272773743e-01" nType="0">
          <Node pos="l" depth="2" NCoef="0" IVar="-1" Cut="1.5161154747009277e+01" cType="0" res="-9.9000000000000000e+01" rms="0.0000000000000000e+00" purity="9.4998341798782349e-01" nType="1"/>
          <Node pos="r" depth="2" NCoef="0" IVar="5" Cut="1.3190964355468750e+03" cType="0" res="-9.9000000000000000e+01" rms="0.0000000000000000e+00" purity="4.0221089124679565e-01" nType="0">
            <Node pos="l" depth="3" NCoef="0" IVar="-1" Cut="0.0000000000000000e+00" cType="1" res="-9.9000000000000000e+01" rms="0.0000000000000000e+00" purity="7.2907054424285889e-01" nType="1"/>
            <Node pos="r" depth="3" NCoef="0" IVar="-1" Cut="0.0000000000000000e+00" cType="1" res="-9.9000000000000000e+01" rms="0.0000000000000000e+00" purity="3.0953770875930786e-01" nType="-1"/>
          </Node>
        </Node>
        <Node pos="r" depth="1" NCoef="0" IVar="-1" Cut="0.0000000000000000e+00" cType="1" res="-9.9000000000000000e+01" rms="0.0000000000000000e+00" purity="0.0000000000000000e+00" nType="-1"/>
      </Node>
    </BinaryTree>
    <BinaryTree type="DecisionTree" boostWeight="4.9505406586413098e-01" itree="5">
      <Node pos="s" depth="0" NCoef="0" IVar="23" Cut="2.1175518035888672e+00" cType="0" res="-9.9000000000000000e+01" rms="0.0000000000000000e+00" purity="4.1123321652412415e-01" nType="0">
        <Node pos="l" depth="1" NCoef="0" IVar="29" Cut="-1.5037950134277344e+02" cType="0" res="-9.9000000000000000e+01" rms="0.0000000000000000e+00" purity="5.0622975826263428e-01" nType="0">
          <Node pos="l" depth="2" NCoef="0" IVar="34" Cut="2.0479862213134766e+01" cType="1" res="-9.9000000000000000e+01" rms="0.0000000000000000e+00" purity="5.4951339960098267e-01" nType="0">
            <Node pos="l" depth="3" NCoef="0" IVar="-1" Cut="0.0000000000000000e+00" cType="1" res="-9.9000000000000000e+01" rms="0.0000000000000000e+00" purity="6.4673900604248047e-01" nType="1"/>
            <Node pos="r" depth="3" NCoef="0" IVar="-1" Cut="0.0000000000000000e+00" cType="1" res="-9.9000000000000000e+01" rms="0.0000000000000000e+00" purity="3.3092355728149414e-01" nType="-1"/>
          </Node>
          <Node pos="r" depth="2" NCoef="0" IVar="-1" Cut="0.0000000000000000e+00" cType="1" res="-9.9000000000000000e+01" rms="0.0000000000000000e+00" purity="0.0000000000000000e+00" nType="-1"/>
        </Node>
        <Node pos="r" depth="1" NCoef="0" IVar="-1" Cut="2.0495038032531738e+00" cType="0" res="-9.9000000000000000e+01" rms="0.0000000000000000e+00" purity="1.0320577770471573e-01" nType="-1"/>
      </Node>
    </BinaryTree>
    <BinaryTree type="DecisionTree" boostWeight="3.3030257343872438e-01" itree="6">
      <Node pos="s" depth="0" NCoef="0" IVar="23" Cut="2.1872653961181641e+00" cType="0" res="-9.9000000000000000e+01" rms="0.0000000000000000e+00" purity="3.9605304598808289e-01" nType="0">
        <Node pos="l" depth="1" NCoef="0" IVar="28" Cut="-3.5481375122070312e+02" cType="0" res="-9.9000000000000000e+01" rms="0.0000000000000000e+00" purity="4.9903720617294312e-01" nType="0">
          <Node pos="l" depth="2" NCoef="0" IVar="17" Cut="8.9473533630371094e-01" cType="0" res="-9.9000000000000000e+01" rms="0.0000000000000000e+00" purity="5.9173548221588135e-01" nType="0">
            <Node pos="l" depth="3" NCoef="0" IVar="-1" Cut="0.0000000000000000e+00" cType="1" res="-9.9000000000000000e+01" rms="0.0000000000000000e+00" purity="7.6457804441452026e-01" nType="1"/>
            <Node pos="r" depth="3" NCoef="0" IVar="-1" Cut="0.0000000000000000e+00" cType="1" res="-9.9000000000000000e+01" rms="0.0000000000000000e+00" purity="4.9496662616729736e-01" nType="-1"/>
          </Node>
          <Node pos="r" depth="2" NCoef="0" IVar="-1" Cut="4.6923822164535522e-01" cType="0" res="-9.9000000000000000e+01" rms="0.0000000000000000e+00" purity="3.8582995533943176e-02" nType="-1"/>
        </Node>
        <Node pos="r" depth="1" NCoef="0" IVar="4" Cut="2.1286485195159912e+00" cType="1" res="-9.9000000000000000e+01" rms="0.0000000000000000e+00" purity="1.8258559703826904e-01" nType="0">
          <Node pos="l" depth="2" NCoef="0" IVar="1" Cut="2.8199589252471924e+00" cType="0" res="-9.9000000000000000e+01" rms="0.0000000000000000e+00" purity="3.8079178333282471e-01" nType="0">
            <Node pos="l" depth="3" NCoef="0" IVar="-1" Cut="0.0000000000000000e+00" cType="1" res="-9.9000000000000000e+01" rms="0.0000000000000000e+00" purity="9.1054093837738037e-01" nType="1"/>
            <Node pos="r" depth="3" NCoef="0" IVar="-1" Cut="0.0000000000000000e+00" cType="1" res="-9.9000000000000000e+01" rms="0.0000000000000000e+00" purity="1.9363550841808319e-01" nType="-1"/>
          </Node>
          <Node pos="r" depth="2" NCoef="0" IVar="-1" Cut="5.1299703121185303e-01" cType="0" res="-9.9000000000000000e+01" rms="0.0000000000000000e+00" purity="5.3590219467878342e-02" nType="-1"/>
        </Node>
      </Node>
    </BinaryTree>
    <BinaryTree type="DecisionTree" boostWeight="3.2554254682680894e-01" itree="7">
      <Node pos="s" depth="0" NCoef="0" IVar="23" Cut="2.4834978580474854e+00" cType="0" res="-9.9000000000000000e+01" rms="0.0000000000000000e+00" purity="4.3004724383354187e-01" nType="0">
        <Node pos="l" depth="1" NCoef="0" IVar="29" Cut="-1.3292063903808594e+02" cType="0" res="-9.9000000000000000e+01" rms="0.0000000000000000e+00" purity="6.3318639993667603e-01" nType="0">
          <Node pos="l" depth="2" NCoef="0" IVar="34" Cut="2.3553466796875000e+01" cType="1" res="-9.9000000000000000e+01" rms="0.0000000000000000e+00" purity="7.0368361473083496e-01" nType="0">
            <Node pos="l" depth="3" NCoef="0" IVar="-1" Cut="0.0000000000000000e+00" cType="1" res="-9.9000000000000000e+01" rms="0.0000000000000000e+00" purity="7.8507137298583984e-01" nType="1"/>
            <Node pos="r" depth="3" NCoef="0" IVar="-1" Cut="0.0000000000000000e+00" cType="1" res="-9.9000000000000000e+01" rms="0.0000000000000000e+00" purity="4.3869441747665405e-01" nType="-1"/>
          </Node>
          <Node pos="r" depth="2" NCoef="0" IVar="-1" Cut="0.0000000000000000e+00" cType="1" res="-9.9000000000000000e+01" rms="0.0000000000000000e+00" purity="7.3710851371288300e-02" nType="-1"/>
        </Node>
        <Node pos="r" depth="1" NCoef="0" IVar="23" Cut="1.9240757226943970e+00" cType="0" res="-9.9000000000000000e+01" rms="0.0000000000000000e+00" purity="3.0628576874732971e-01" nType="0">
          <Node pos="l" depth="2" NCoef="0" IVar="32" Cut="2.2258064746856689e+00" cType="1" res="-9.9000000000000000e+01" rms="0.0000000000000000e+00" purity="3.6426228284835815e-01" nType="0">
            <Node pos="l" depth="3" NCoef="0" IVar="-1" Cut="0.0000000000000000e+00" cType="1" res="-9.9000000000000000e+01" rms="0.0000000000000000e+00" purity="8.0667996406555176e-01" nType="1"/>
            <Node pos="r" depth="3" NCoef="0" IVar="-1" Cut="0.0000000000000000e+00" cType="1" res="-9.9000000000000000e+01" rms="0.0000000000000000e+00" purity="3.0624923110008240e-01" nType="-1"/>
          </Node>
          <Node pos="r" depth="2" NCoef="0" IVar="-1" Cut="0.0000000000000000e+00" cType="1" res="-9.9000000000000000e+01" rms="0.0000000000000000e+00" purity="0.0000000000000000e+00" nType="-1"/>
        </Node>
      </Node>
    </BinaryTree>
    <BinaryTree type="DecisionTree" boostWeight="2.2808027863853481e-01" itree="8">
      <Node pos="s" depth="0" NCoef="0" IVar="23" Cut="1.9159169197082520e+00" cType="0" res="-9.9000000000000000e+01" rms="0.0000000000000000e+00" purity="4.3334451317787170e-01" nType="0">
        <Node pos="l" depth="1" NCoef="0" IVar="23" Cut="2.8470358848571777e+00" cType="0" res="-9.9000000000000000e+01" rms="0.0000000000000000e+00" purity="4.8714175820350647e-01" nType="0">
          <Node pos="l" depth="2" NCoef="0" IVar="-1" Cut="3.9019277954101562e+02" cType="0" res="-9.9000000000000000e+01" rms="0.0000000000000000e+00" purity="8.5066479444503784e-01" nType="1"/>
          <Node pos="r" depth="2" NCoef="0" IVar="5" Cut="1.8813563232421875e+03" cType="0" res="-9.9000000000000000e+01" rms="0.0000000000000000e+00" purity="4.3914568424224854e-01" nType="0">
            <Node pos="l" depth="3" NCoef="0" IVar="-1" Cut="0.0000000000000000e+00" cType="1" res="-9.9000000000000000e+01" rms="0.0000000000000000e+00" purity="9.1694486141204834e-01" nType="1"/>
            <Node pos="r" depth="3" NCoef="0" IVar="-1" Cut="0.0000000000000000e+00" cType="1" res="-9.9000000000000000e+01" rms="0.0000000000000000e+00" purity="4.0961512923240662e-01" nType="-1"/>
          </Node>
        </Node>
        <Node pos="r" depth="1" NCoef="0" IVar="-1" Cut="0.0000000000000000e+00" cType="1" res="-9.9000000000000000e+01" rms="0.0000000000000000e+00" purity="0.0000000000000000e+00" nType="-1"/>
      </Node>
    </BinaryTree>
    <BinaryTree type="DecisionTree" boostWeight="2.4130243961218678e-01" itree="9">
      <Node pos="s" depth="0" NCoef="0" IVar="23" Cut="1.9112765789031982e+00" cType="0" res="-9.9000000000000000e+01" rms="0.0000000000000000e+00" purity="5.2236407995223999e-01" nType="0">
        <Node pos="l" depth="1" NCoef="0" IVar="29" Cut="-1.7047434997558594e+02" cType="0" res="-9.9000000000000000e+01" rms="0.0000000000000000e+00" purity="5.5931079387664795e-01" nType="0">
          <Node pos="l" depth="2" NCoef="0" IVar="-1" Cut="1.3196516113281250e+03" cType="0" res="-9.9000000000000000e+01" rms="0.0000000000000000e+00" purity="5.8757352828979492e-01" nType="1"/>
          <Node pos="r" depth="2" NCoef="0" IVar="-1" Cut="0.0000000000000000e+00" cType="1" res="-9.9000000000000000e+01" rms="0.0000000000000000e+00" purity="0.0000000000000000e+00" nType="-1"/>
        </Node>
        <Node pos="r" depth="1" NCoef="0" IVar="-1" Cut="0.0000000000000000e+00" cType="1" res="-9.9000000000000000e+01" rms="0.0000000000000000e+00" purity="0.0000000000000000e+00" nType="-1"/>
      </Node>
    </BinaryTree>
  </Weights>
</MethodSetup>
