<?xml version="1.0"?>
<MethodSetup Method="BDT::BDT">
  <GeneralInfo>
    <Info name="TMVA Release" value="4.2.0 [262656]"/>
    <Info name="ROOT Release" value="5.34/34 [336418]"/>
    <Info name="Creator" value="annikamonari"/>
    <Info name="Date" value="Mon Feb  8 16:52:40 2016"/>
    <Info name="Host" value="Darwin macitois14.cern.ch 14.5.0 Darwin Kernel Version 14.5.0: Wed Jul 29 02:26:53 PDT 2015; root:xnu-2782.40.9~1/RELEASE_X86_64 x86_64"/>
    <Info name="Dir" value="/Users/annikamonari/Desktop/ICMSciThesisHiggsInv"/>
    <Info name="Training events" value="3214"/>
    <Info name="TrainingTime" value="2.79673791e+00"/>
    <Info name="AnalysisType" value="Classification"/>
  </GeneralInfo>
  <Options>
    <Option name="V" modified="Yes">False</Option>
    <Option name="VerbosityLevel" modified="No">Default</Option>
    <Option name="VarTransform" modified="No">None</Option>
    <Option name="H" modified="Yes">False</Option>
    <Option name="CreateMVAPdfs" modified="No">False</Option>
    <Option name="IgnoreNegWeightsInTraining" modified="No">False</Option>
    <Option name="NTrees" modified="Yes">800</Option>
    <Option name="MaxDepth" modified="Yes">3</Option>
    <Option name="MinNodeSize" modified="Yes">2.5%</Option>
    <Option name="nCuts" modified="Yes">30</Option>
    <Option name="BoostType" modified="Yes">AdaBoost</Option>
    <Option name="AdaBoostR2Loss" modified="No">quadratic</Option>
    <Option name="UseBaggedBoost" modified="Yes">True</Option>
    <Option name="Shrinkage" modified="No">1.000000e+00</Option>
    <Option name="AdaBoostBeta" modified="Yes">5.000000e-01</Option>
    <Option name="UseRandomisedTrees" modified="No">False</Option>
    <Option name="UseNvars" modified="No">3</Option>
    <Option name="UsePoissonNvars" modified="No">True</Option>
    <Option name="BaggedSampleFraction" modified="Yes">5.000000e-01</Option>
    <Option name="UseYesNoLeaf" modified="No">True</Option>
    <Option name="NegWeightTreatment" modified="No">inverseboostnegweights</Option>
    <Option name="Css" modified="No">1.000000e+00</Option>
    <Option name="Cts_sb" modified="No">1.000000e+00</Option>
    <Option name="Ctb_ss" modified="No">1.000000e+00</Option>
    <Option name="Cbb" modified="No">1.000000e+00</Option>
    <Option name="NodePurityLimit" modified="No">5.000000e-01</Option>
    <Option name="SeparationType" modified="Yes">giniindex</Option>
    <Option name="DoBoostMonitor" modified="No">False</Option>
    <Option name="UseFisherCuts" modified="No">False</Option>
    <Option name="MinLinCorrForFisher" modified="No">8.000000e-01</Option>
    <Option name="UseExclusiveVars" modified="No">False</Option>
    <Option name="DoPreselection" modified="No">False</Option>
    <Option name="SigToBkgFraction" modified="No">1.000000e+00</Option>
    <Option name="PruneMethod" modified="No">nopruning</Option>
    <Option name="PruneStrength" modified="No">0.000000e+00</Option>
    <Option name="PruningValFraction" modified="No">5.000000e-01</Option>
    <Option name="nEventsMin" modified="No">0</Option>
    <Option name="UseBaggedGrad" modified="No">False</Option>
    <Option name="GradBaggingFraction" modified="No">5.000000e-01</Option>
    <Option name="UseNTrainEvents" modified="No">0</Option>
    <Option name="NNodesMax" modified="No">0</Option>
  </Options>
  <Variables NVar="7">
    <Variable VarIndex="0" Expression="alljetsmetnomu_mindphi" Label="alljetsmetnomu_mindphi" Title="All Jets - MET Min. #Delta#phi (No Muons)" Unit="" Internal="alljetsmetnomu_mindphi" Type="F" Min="2.00030828e+00" Max="2.99921584e+00"/>
    <Variable VarIndex="1" Expression="forward_tag_eta" Label="forward_tag_eta" Title="Forward Tag #eta" Unit="" Internal="forward_tag_eta" Type="F" Min="-4.69821596e+00" Max="4.61924410e+00"/>
    <Variable VarIndex="2" Expression="dijet_deta" Label="dijet_deta" Title="Dijet #Delta#eta" Unit="" Internal="dijet_deta" Type="F" Min="4.20014095e+00" Max="7.98753500e+00"/>
    <Variable VarIndex="3" Expression="metnomu_significance" Label="metnomu_significance" Title="MET Significance (No Muons)" Unit="" Internal="metnomu_significance" Type="F" Min="3.50071120e+00" Max="1.84071674e+01"/>
    <Variable VarIndex="4" Expression="sqrt_ht" Label="sqrt_ht" Title="Square Root HCAL Scalar Sum of Energy" Unit="GeV^{0.5}" Internal="sqrt_ht" Type="F" Min="8.21932983e+00" Max="2.66764717e+01"/>
    <Variable VarIndex="5" Expression="dijet_M" Label="dijet_M" Title="Dijet Mass" Unit="GeV" Internal="dijet_M" Type="F" Min="2.81359711e+02" Max="4.27894238e+03"/>
    <Variable VarIndex="6" Expression="metnomuons" Label="metnomuons" Title="MET (No Muons)" Unit="GeV" Internal="metnomuons" Type="F" Min="5.42021637e+01" Max="6.68498352e+02"/>
  </Variables>
  <Spectators NSpec="0"/>
  <Classes NClass="2">
    <Class Name="Background" Index="0"/>
    <Class Name="Signal" Index="1"/>
  </Classes>
  <Transformations NTransformations="0"/>
  <MVAPdfs/>
  <Weights NTrees="800" AnalysisType="0">
    <BinaryTree type="DecisionTree" boostWeight="4.8994326078849471e-01" itree="0">
      <Node pos="s" depth="0" NCoef="0" IVar="6" Cut="1.7083691406250000e+02" cType="0" res="-9.9000000000000000e+01" rms="0.0000000000000000e+00" purity="5.2821338176727295e-01" nType="0">
        <Node pos="l" depth="1" NCoef="0" IVar="-1" Cut="2.2342159748077393e+00" cType="0" res="-9.9000000000000000e+01" rms="0.0000000000000000e+00" purity="8.7817859649658203e-01" nType="1"/>
        <Node pos="r" depth="1" NCoef="0" IVar="4" Cut="1.2408523559570312e+01" cType="1" res="-9.9000000000000000e+01" rms="0.0000000000000000e+00" purity="3.9053732156753540e-01" nType="0">
          <Node pos="l" depth="2" NCoef="0" IVar="-1" Cut="3.1390089988708496e+00" cType="0" res="-9.9000000000000000e+01" rms="0.0000000000000000e+00" purity="6.7707675695419312e-01" nType="1"/>
          <Node pos="r" depth="2" NCoef="0" IVar="5" Cut="1.0982189941406250e+03" cType="0" res="-9.9000000000000000e+01" rms="0.0000000000000000e+00" purity="3.3922317624092102e-01" nType="0">
            <Node pos="l" depth="3" NCoef="0" IVar="-1" Cut="0.0000000000000000e+00" cType="1" res="-9.9000000000000000e+01" rms="0.0000000000000000e+00" purity="5.0648742914199829e-01" nType="1"/>
            <Node pos="r" depth="3" NCoef="0" IVar="-1" Cut="0.0000000000000000e+00" cType="1" res="-9.9000000000000000e+01" rms="0.0000000000000000e+00" purity="2.2806501388549805e-01" nType="-1"/>
          </Node>
        </Node>
      </Node>
    </BinaryTree>
    <BinaryTree type="DecisionTree" boostWeight="6.0345646432555411e-01" itree="1">
      <Node pos="s" depth="0" NCoef="0" IVar="6" Cut="1.5295881652832031e+02" cType="0" res="-9.9000000000000000e+01" rms="0.0000000000000000e+00" purity="4.9953702092170715e-01" nType="0">
        <Node pos="l" depth="1" NCoef="0" IVar="0" Cut="2.4541769027709961e+00" cType="0" res="-9.9000000000000000e+01" rms="0.0000000000000000e+00" purity="7.1867096424102783e-01" nType="0">
          <Node pos="l" depth="2" NCoef="0" IVar="-1" Cut="2.8587563037872314e+00" cType="1" res="-9.9000000000000000e+01" rms="0.0000000000000000e+00" purity="8.6316210031509399e-01" nType="1"/>
          <Node pos="r" depth="2" NCoef="0" IVar="5" Cut="1.5727664794921875e+03" cType="1" res="-9.9000000000000000e+01" rms="0.0000000000000000e+00" purity="4.9957633018493652e-01" nType="0">
            <Node pos="l" depth="3" NCoef="0" IVar="-1" Cut="0.0000000000000000e+00" cType="1" res="-9.9000000000000000e+01" rms="0.0000000000000000e+00" purity="7.1396881341934204e-01" nType="1"/>
            <Node pos="r" depth="3" NCoef="0" IVar="-1" Cut="0.0000000000000000e+00" cType="1" res="-9.9000000000000000e+01" rms="0.0000000000000000e+00" purity="2.5873571634292603e-01" nType="-1"/>
          </Node>
        </Node>
        <Node pos="r" depth="1" NCoef="0" IVar="4" Cut="1.2577515602111816e+01" cType="1" res="-9.9000000000000000e+01" rms="0.0000000000000000e+00" purity="3.0982276797294617e-01" nType="0">
          <Node pos="l" depth="2" NCoef="0" IVar="5" Cut="1.1820772705078125e+03" cType="0" res="-9.9000000000000000e+01" rms="0.0000000000000000e+00" purity="4.7508585453033447e-01" nType="0">
            <Node pos="l" depth="3" NCoef="0" IVar="-1" Cut="0.0000000000000000e+00" cType="1" res="-9.9000000000000000e+01" rms="0.0000000000000000e+00" purity="1.0000000000000000e+00" nType="1"/>
            <Node pos="r" depth="3" NCoef="0" IVar="-1" Cut="0.0000000000000000e+00" cType="1" res="-9.9000000000000000e+01" rms="0.0000000000000000e+00" purity="3.4185886383056641e-01" nType="-1"/>
          </Node>
          <Node pos="r" depth="2" NCoef="0" IVar="-1" Cut="1.1765281677246094e+02" cType="0" res="-9.9000000000000000e+01" rms="0.0000000000000000e+00" purity="2.6175221800804138e-01" nType="-1"/>
        </Node>
      </Node>
    </BinaryTree>
    <BinaryTree type="DecisionTree" boostWeight="5.2134631931755859e-01" itree="2">
      <Node pos="s" depth="0" NCoef="0" IVar="5" Cut="1.1359173583984375e+03" cType="0" res="-9.9000000000000000e+01" rms="0.0000000000000000e+00" purity="4.7467556595802307e-01" nType="0">
        <Node pos="l" depth="1" NCoef="0" IVar="2" Cut="5.5687260627746582e+00" cType="1" res="-9.9000000000000000e+01" rms="0.0000000000000000e+00" purity="7.0338326692581177e-01" nType="0">
          <Node pos="l" depth="2" NCoef="0" IVar="-1" Cut="0.0000000000000000e+00" cType="1" res="-9.9000000000000000e+01" rms="0.0000000000000000e+00" purity="1.0000000000000000e+00" nType="1"/>
          <Node pos="r" depth="2" NCoef="0" IVar="0" Cut="2.4181885719299316e+00" cType="0" res="-9.9000000000000000e+01" rms="0.0000000000000000e+00" purity="5.5610358715057373e-01" nType="0">
            <Node pos="l" depth="3" NCoef="0" IVar="-1" Cut="0.0000000000000000e+00" cType="1" res="-9.9000000000000000e+01" rms="0.0000000000000000e+00" purity="8.5453402996063232e-01" nType="1"/>
            <Node pos="r" depth="3" NCoef="0" IVar="-1" Cut="0.0000000000000000e+00" cType="1" res="-9.9000000000000000e+01" rms="0.0000000000000000e+00" purity="3.7541863322257996e-01" nType="-1"/>
          </Node>
        </Node>
        <Node pos="r" depth="1" NCoef="0" IVar="0" Cut="2.7735443115234375e+00" cType="1" res="-9.9000000000000000e+01" rms="0.0000000000000000e+00" purity="3.6563751101493835e-01" nType="0">
          <Node pos="l" depth="2" NCoef="0" IVar="0" Cut="2.4740116596221924e+00" cType="0" res="-9.9000000000000000e+01" rms="0.0000000000000000e+00" purity="4.5952686667442322e-01" nType="0">
            <Node pos="l" depth="3" NCoef="0" IVar="-1" Cut="0.0000000000000000e+00" cType="1" res="-9.9000000000000000e+01" rms="0.0000000000000000e+00" purity="7.1005970239639282e-01" nType="1"/>
            <Node pos="r" depth="3" NCoef="0" IVar="-1" Cut="0.0000000000000000e+00" cType="1" res="-9.9000000000000000e+01" rms="0.0000000000000000e+00" purity="3.7602800130844116e-01" nType="-1"/>
          </Node>
          <Node pos="r" depth="2" NCoef="0" IVar="3" Cut="5.4206385612487793e+00" cType="0" res="-9.9000000000000000e+01" rms="0.0000000000000000e+00" purity="1.7737179994583130e-01" nType="0">
            <Node pos="l" depth="3" NCoef="0" IVar="-1" Cut="0.0000000000000000e+00" cType="1" res="-9.9000000000000000e+01" rms="0.0000000000000000e+00" purity="5.2500510215759277e-01" nType="1"/>
            <Node pos="r" depth="3" NCoef="0" IVar="-1" Cut="0.0000000000000000e+00" cType="1" res="-9.9000000000000000e+01" rms="0.0000000000000000e+00" purity="1.1157649010419846e-01" nType="-1"/>
          </Node>
        </Node>
      </Node>
    </BinaryTree>
    <BinaryTree type="DecisionTree" boostWeight="5.2478411803670466e-01" itree="3">
      <Node pos="s" depth="0" NCoef="0" IVar="3" Cut="4.2921786308288574e+00" cType="0" res="-9.9000000000000000e+01" rms="0.0000000000000000e+00" purity="6.4638888835906982e-01" nType="0">
        <Node pos="l" depth="1" NCoef="0" IVar="0" Cut="2.4517023563385010e+00" cType="0" res="-9.9000000000000000e+01" rms="0.0000000000000000e+00" purity="7.2510349750518799e-01" nType="0">
          <Node pos="l" depth="2" NCoef="0" IVar="-1" Cut="5.0329198837280273e+00" cType="0" res="-9.9000000000000000e+01" rms="0.0000000000000000e+00" purity="8.6756569147109985e-01" nType="1"/>
          <Node pos="r" depth="2" NCoef="0" IVar="1" Cut="2.5710453987121582e+00" cType="1" res="-9.9000000000000000e+01" rms="0.0000000000000000e+00" purity="6.3141721487045288e-01" nType="0">
            <Node pos="l" depth="3" NCoef="0" IVar="-1" Cut="0.0000000000000000e+00" cType="1" res="-9.9000000000000000e+01" rms="0.0000000000000000e+00" purity="8.4326833486557007e-01" nType="1"/>
            <Node pos="r" depth="3" NCoef="0" IVar="-1" Cut="0.0000000000000000e+00" cType="1" res="-9.9000000000000000e+01" rms="0.0000000000000000e+00" purity="4.6309113502502441e-01" nType="-1"/>
          </Node>
        </Node>
        <Node pos="r" depth="1" NCoef="0" IVar="4" Cut="1.4224552154541016e+01" cType="0" res="-9.9000000000000000e+01" rms="0.0000000000000000e+00" purity="4.2837029695510864e-01" nType="0">
          <Node pos="l" depth="2" NCoef="0" IVar="-1" Cut="0.0000000000000000e+00" cType="1" res="-9.9000000000000000e+01" rms="0.0000000000000000e+00" purity="7.0975410938262939e-01" nType="1"/>
          <Node pos="r" depth="2" NCoef="0" IVar="0" Cut="2.3903529644012451e+00" cType="1" res="-9.9000000000000000e+01" rms="0.0000000000000000e+00" purity="3.4204736351966858e-01" nType="0">
            <Node pos="l" depth="3" NCoef="0" IVar="-1" Cut="0.0000000000000000e+00" cType="1" res="-9.9000000000000000e+01" rms="0.0000000000000000e+00" purity="5.9008753299713135e-01" nType="1"/>
            <Node pos="r" depth="3" NCoef="0" IVar="-1" Cut="0.0000000000000000e+00" cType="1" res="-9.9000000000000000e+01" rms="0.0000000000000000e+00" purity="2.2177986800670624e-01" nType="-1"/>
          </Node>
        </Node>
      </Node>
    </BinaryTree>
    <BinaryTree type="DecisionTree" boostWeight="4.4685012984031763e-01" itree="4">
      <Node pos="s" depth="0" NCoef="0" IVar="3" Cut="6.2711186408996582e+00" cType="0" res="-9.9000000000000000e+01" rms="0.0000000000000000e+00" purity="4.7946459054946899e-01" nType="0">
        <Node pos="l" depth="1" NCoef="0" IVar="-1" Cut="2.3571267127990723e+00" cType="0" res="-9.9000000000000000e+01" rms="0.0000000000000000e+00" purity="8.9983087778091431e-01" nType="1"/>
        <Node pos="r" depth="1" NCoef="0" IVar="0" Cut="2.2900879383087158e+00" cType="1" res="-9.9000000000000000e+01" rms="0.0000000000000000e+00" purity="4.0980026125907898e-01" nType="0">
          <Node pos="l" depth="2" NCoef="0" IVar="0" Cut="2.1121304035186768e+00" cType="0" res="-9.9000000000000000e+01" rms="0.0000000000000000e+00" purity="5.2670282125473022e-01" nType="0">
            <Node pos="l" depth="3" NCoef="0" IVar="-1" Cut="0.0000000000000000e+00" cType="1" res="-9.9000000000000000e+01" rms="0.0000000000000000e+00" purity="6.9078451395034790e-01" nType="1"/>
            <Node pos="r" depth="3" NCoef="0" IVar="-1" Cut="0.0000000000000000e+00" cType="1" res="-9.9000000000000000e+01" rms="0.0000000000000000e+00" purity="2.8116247057914734e-01" nType="-1"/>
          </Node>
          <Node pos="r" depth="2" NCoef="0" IVar="6" Cut="1.8161569213867188e+02" cType="0" res="-9.9000000000000000e+01" rms="0.0000000000000000e+00" purity="3.5335126519203186e-01" nType="0">
            <Node pos="l" depth="3" NCoef="0" IVar="-1" Cut="0.0000000000000000e+00" cType="1" res="-9.9000000000000000e+01" rms="0.0000000000000000e+00" purity="6.2572884559631348e-01" nType="1"/>
            <Node pos="r" depth="3" NCoef="0" IVar="-1" Cut="0.0000000000000000e+00" cType="1" res="-9.9000000000000000e+01" rms="0.0000000000000000e+00" purity="3.2987412810325623e-01" nType="-1"/>
          </Node>
        </Node>
      </Node>
    </BinaryTree>
    <BinaryTree type="DecisionTree" boostWeight="5.0946914539961363e-01" itree="5">
      <Node pos="s" depth="0" NCoef="0" IVar="5" Cut="1.0589846191406250e+03" cType="0" res="-9.9000000000000000e+01" rms="0.0000000000000000e+00" purity="5.9839510917663574e-01" nType="0">
        <Node pos="l" depth="1" NCoef="0" IVar="1" Cut="3.6824662685394287e+00" cType="1" res="-9.9000000000000000e+01" rms="0.0000000000000000e+00" purity="7.3517239093780518e-01" nType="0">
          <Node pos="l" depth="2" NCoef="0" IVar="-1" Cut="-3.1223790645599365e+00" cType="0" res="-9.9000000000000000e+01" rms="0.0000000000000000e+00" purity="8.2433545589447021e-01" nType="1"/>
          <Node pos="r" depth="2" NCoef="0" IVar="-1" Cut="0.0000000000000000e+00" cType="1" res="-9.9000000000000000e+01" rms="0.0000000000000000e+00" purity="3.6563208699226379e-01" nType="-1"/>
        </Node>
        <Node pos="r" depth="1" NCoef="0" IVar="1" Cut="2.5619654655456543e+00" cType="1" res="-9.9000000000000000e+01" rms="0.0000000000000000e+00" purity="4.4907772541046143e-01" nType="0">
          <Node pos="l" depth="2" NCoef="0" IVar="5" Cut="9.0732281494140625e+02" cType="0" res="-9.9000000000000000e+01" rms="0.0000000000000000e+00" purity="5.9414583444595337e-01" nType="0">
            <Node pos="l" depth="3" NCoef="0" IVar="-1" Cut="0.0000000000000000e+00" cType="1" res="-9.9000000000000000e+01" rms="0.0000000000000000e+00" purity="8.5041779279708862e-01" nType="1"/>
            <Node pos="r" depth="3" NCoef="0" IVar="-1" Cut="0.0000000000000000e+00" cType="1" res="-9.9000000000000000e+01" rms="0.0000000000000000e+00" purity="4.1011965274810791e-01" nType="-1"/>
          </Node>
          <Node pos="r" depth="2" NCoef="0" IVar="-1" Cut="2.7085239887237549e+00" cType="0" res="-9.9000000000000000e+01" rms="0.0000000000000000e+00" purity="3.3900204300880432e-01" nType="-1"/>
        </Node>
      </Node>
    </BinaryTree>
    <BinaryTree type="DecisionTree" boostWeight="5.9025065995778558e-01" itree="6">
      <Node pos="s" depth="0" NCoef="0" IVar="5" Cut="1.1219644775390625e+03" cType="0" res="-9.9000000000000000e+01" rms="0.0000000000000000e+00" purity="5.2069449424743652e-01" nType="0">
        <Node pos="l" depth="1" NCoef="0" IVar="6" Cut="1.6417488098144531e+02" cType="0" res="-9.9000000000000000e+01" rms="0.0000000000000000e+00" purity="7.3426657915115356e-01" nType="0">
          <Node pos="l" depth="2" NCoef="0" IVar="-1" Cut="0.0000000000000000e+00" cType="1" res="-9.9000000000000000e+01" rms="0.0000000000000000e+00" purity="1.0000000000000000e+00" nType="1"/>
          <Node pos="r" depth="2" NCoef="0" IVar="2" Cut="6.4242510795593262e+00" cType="1" res="-9.9000000000000000e+01" rms="0.0000000000000000e+00" purity="5.3550964593887329e-01" nType="0">
            <Node pos="l" depth="3" NCoef="0" IVar="-1" Cut="0.0000000000000000e+00" cType="1" res="-9.9000000000000000e+01" rms="0.0000000000000000e+00" purity="6.7385441064834595e-01" nType="1"/>
            <Node pos="r" depth="3" NCoef="0" IVar="-1" Cut="0.0000000000000000e+00" cType="1" res="-9.9000000000000000e+01" rms="0.0000000000000000e+00" purity="3.4411799907684326e-01" nType="-1"/>
          </Node>
        </Node>
        <Node pos="r" depth="1" NCoef="0" IVar="4" Cut="1.6423702239990234e+01" cType="1" res="-9.9000000000000000e+01" rms="0.0000000000000000e+00" purity="4.1180527210235596e-01" nType="0">
          <Node pos="l" depth="2" NCoef="0" IVar="2" Cut="5.2376575469970703e+00" cType="1" res="-9.9000000000000000e+01" rms="0.0000000000000000e+00" purity="5.0020903348922729e-01" nType="0">
            <Node pos="l" depth="3" NCoef="0" IVar="-1" Cut="0.0000000000000000e+00" cType="1" res="-9.9000000000000000e+01" rms="0.0000000000000000e+00" purity="6.7497986555099487e-01" nType="1"/>
            <Node pos="r" depth="3" NCoef="0" IVar="-1" Cut="0.0000000000000000e+00" cType="1" res="-9.9000000000000000e+01" rms="0.0000000000000000e+00" purity="2.6103317737579346e-01" nType="-1"/>
          </Node>
          <Node pos="r" depth="2" NCoef="0" IVar="-1" Cut="0.0000000000000000e+00" cType="1" res="-9.9000000000000000e+01" rms="0.0000000000000000e+00" purity="1.2644447386264801e-01" nType="-1"/>
        </Node>
      </Node>
    </BinaryTree>
    <BinaryTree type="DecisionTree" boostWeight="1.9466473077697763e-01" itree="7">
      <Node pos="s" depth="0" NCoef="0" IVar="6" Cut="2.5084780883789062e+02" cType="0" res="-9.9000000000000000e+01" rms="0.0000000000000000e+00" purity="5.0942778587341309e-01" nType="0">
        <Node pos="l" depth="1" NCoef="0" IVar="-1" Cut="0.0000000000000000e+00" cType="1" res="-9.9000000000000000e+01" rms="0.0000000000000000e+00" purity="1.0000000000000000e+00" nType="1"/>
        <Node pos="r" depth="1" NCoef="0" IVar="4" Cut="1.6370149612426758e+01" cType="1" res="-9.9000000000000000e+01" rms="0.0000000000000000e+00" purity="4.8780667781829834e-01" nType="0">
          <Node pos="l" depth="2" NCoef="0" IVar="-1" Cut="1.8773686218261719e+02" cType="0" res="-9.9000000000000000e+01" rms="0.0000000000000000e+00" purity="5.4288518428802490e-01" nType="1"/>
          <Node pos="r" depth="2" NCoef="0" IVar="-1" Cut="1.9529142761230469e+02" cType="0" res="-9.9000000000000000e+01" rms="0.0000000000000000e+00" purity="3.0238163471221924e-01" nType="-1"/>
        </Node>
      </Node>
    </BinaryTree>
    <BinaryTree type="DecisionTree" boostWeight="5.2854587386054896e-01" itree="8">
      <Node pos="s" depth="0" NCoef="0" IVar="6" Cut="1.6849015808105469e+02" cType="0" res="-9.9000000000000000e+01" rms="0.0000000000000000e+00" purity="5.1097911596298218e-01" nType="0">
        <Node pos="l" depth="1" NCoef="0" IVar="5" Cut="1.1434626464843750e+03" cType="0" res="-9.9000000000000000e+01" rms="0.0000000000000000e+00" purity="8.3801198005676270e-01" nType="0">
          <Node pos="l" depth="2" NCoef="0" IVar="-1" Cut="0.0000000000000000e+00" cType="1" res="-9.9000000000000000e+01" rms="0.0000000000000000e+00" purity="1.0000000000000000e+00" nType="1"/>
          <Node pos="r" depth="2" NCoef="0" IVar="5" Cut="8.3102081298828125e+02" cType="0" res="-9.9000000000000000e+01" rms="0.0000000000000000e+00" purity="6.4169722795486450e-01" nType="0">
            <Node pos="l" depth="3" NCoef="0" IVar="-1" Cut="0.0000000000000000e+00" cType="1" res="-9.9000000000000000e+01" rms="0.0000000000000000e+00" purity="7.4973076581954956e-01" nType="1"/>
            <Node pos="r" depth="3" NCoef="0" IVar="-1" Cut="0.0000000000000000e+00" cType="1" res="-9.9000000000000000e+01" rms="0.0000000000000000e+00" purity="3.2181954383850098e-01" nType="-1"/>
          </Node>
        </Node>
        <Node pos="r" depth="1" NCoef="0" IVar="4" Cut="1.2586009025573730e+01" cType="1" res="-9.9000000000000000e+01" rms="0.0000000000000000e+00" purity="4.1265305876731873e-01" nType="0">
          <Node pos="l" depth="2" NCoef="0" IVar="-1" Cut="8.1077954101562500e+02" cType="0" res="-9.9000000000000000e+01" rms="0.0000000000000000e+00" purity="8.2508319616317749e-01" nType="1"/>
          <Node pos="r" depth="2" NCoef="0" IVar="1" Cut="2.9906330108642578e+00" cType="0" res="-9.9000000000000000e+01" rms="0.0000000000000000e+00" purity="3.2927852869033813e-01" nType="0">
            <Node pos="l" depth="3" NCoef="0" IVar="-1" Cut="0.0000000000000000e+00" cType="1" res="-9.9000000000000000e+01" rms="0.0000000000000000e+00" purity="5.0869059562683105e-01" nType="1"/>
            <Node pos="r" depth="3" NCoef="0" IVar="-1" Cut="0.0000000000000000e+00" cType="1" res="-9.9000000000000000e+01" rms="0.0000000000000000e+00" purity="2.5081130862236023e-01" nType="-1"/>
          </Node>
        </Node>
      </Node>
    </BinaryTree>
    <BinaryTree type="DecisionTree" boostWeight="4.1752091484251719e-01" itree="9">
      <Node pos="s" depth="0" NCoef="0" IVar="4" Cut="1.4189798355102539e+01" cType="0" res="-9.9000000000000000e+01" rms="0.0000000000000000e+00" purity="5.4262167215347290e-01" nType="0">
        <Node pos="l" depth="1" NCoef="0" IVar="5" Cut="9.0299322509765625e+02" cType="0" res="-9.9000000000000000e+01" rms="0.0000000000000000e+00" purity="7.1839296817779541e-01" nType="0">
          <Node pos="l" depth="2" NCoef="0" IVar="1" Cut="-3.6254386901855469e+00" cType="0" res="-9.9000000000000000e+01" rms="0.0000000000000000e+00" purity="7.9336047172546387e-01" nType="0">
            <Node pos="l" depth="3" NCoef="0" IVar="-1" Cut="0.0000000000000000e+00" cType="1" res="-9.9000000000000000e+01" rms="0.0000000000000000e+00" purity="8.7608522176742554e-01" nType="1"/>
            <Node pos="r" depth="3" NCoef="0" IVar="-1" Cut="0.0000000000000000e+00" cType="1" res="-9.9000000000000000e+01" rms="0.0000000000000000e+00" purity="3.5772565007209778e-01" nType="-1"/>
          </Node>
          <Node pos="r" depth="2" NCoef="0" IVar="4" Cut="1.5045345306396484e+01" cType="1" res="-9.9000000000000000e+01" rms="0.0000000000000000e+00" purity="4.6519324183464050e-01" nType="0">
            <Node pos="l" depth="3" NCoef="0" IVar="-1" Cut="0.0000000000000000e+00" cType="1" res="-9.9000000000000000e+01" rms="0.0000000000000000e+00" purity="6.5470045804977417e-01" nType="1"/>
            <Node pos="r" depth="3" NCoef="0" IVar="-1" Cut="0.0000000000000000e+00" cType="1" res="-9.9000000000000000e+01" rms="0.0000000000000000e+00" purity="3.4748053550720215e-01" nType="-1"/>
          </Node>
        </Node>
        <Node pos="r" depth="1" NCoef="0" IVar="4" Cut="1.3418952941894531e+01" cType="1" res="-9.9000000000000000e+01" rms="0.0000000000000000e+00" purity="4.2839172482490540e-01" nType="0">
          <Node pos="l" depth="2" NCoef="0" IVar="3" Cut="5.7023115158081055e+00" cType="0" res="-9.9000000000000000e+01" rms="0.0000000000000000e+00" purity="5.3545421361923218e-01" nType="0">
            <Node pos="l" depth="3" NCoef="0" IVar="-1" Cut="0.0000000000000000e+00" cType="1" res="-9.9000000000000000e+01" rms="0.0000000000000000e+00" purity="8.9735639095306396e-01" nType="1"/>
            <Node pos="r" depth="3" NCoef="0" IVar="-1" Cut="0.0000000000000000e+00" cType="1" res="-9.9000000000000000e+01" rms="0.0000000000000000e+00" purity="4.8433509469032288e-01" nType="-1"/>
          </Node>
          <Node pos="r" depth="2" NCoef="0" IVar="-1" Cut="2.5701522827148438e+00" cType="0" res="-9.9000000000000000e+01" rms="0.0000000000000000e+00" purity="2.4993917346000671e-01" nType="-1"/>
        </Node>
      </Node>
    </BinaryTree>
    <BinaryTree type="DecisionTree" boostWeight="4.3536073979643103e-01" itree="10">
      <Node pos="s" depth="0" NCoef="0" IVar="5" Cut="9.2613110351562500e+02" cType="0" res="-9.9000000000000000e+01" rms="0.0000000000000000e+00" purity="6.0152566432952881e-01" nType="0">
        <Node pos="l" depth="1" NCoef="0" IVar="-1" Cut="1.0344270019531250e+03" cType="1" res="-9.9000000000000000e+01" rms="0.0000000000000000e+00" purity="6.8545782566070557e-01" nType="1"/>
        <Node pos="r" depth="1" NCoef="0" IVar="0" Cut="2.6447618007659912e+00" cType="0" res="-9.9000000000000000e+01" rms="0.0000000000000000e+00" purity="4.5089003443717957e-01" nType="0">
          <Node pos="l" depth="2" NCoef="0" IVar="-1" Cut="8.3769006347656250e+02" cType="0" res="-9.9000000000000000e+01" rms="0.0000000000000000e+00" purity="8.3257496356964111e-01" nType="1"/>
          <Node pos="r" depth="2" NCoef="0" IVar="3" Cut="5.0249271392822266e+00" cType="0" res="-9.9000000000000000e+01" rms="0.0000000000000000e+00" purity="3.6851340532302856e-01" nType="0">
            <Node pos="l" depth="3" NCoef="0" IVar="-1" Cut="0.0000000000000000e+00" cType="1" res="-9.9000000000000000e+01" rms="0.0000000000000000e+00" purity="7.1470856666564941e-01" nType="1"/>
            <Node pos="r" depth="3" NCoef="0" IVar="-1" Cut="0.0000000000000000e+00" cType="1" res="-9.9000000000000000e+01" rms="0.0000000000000000e+00" purity="2.7893957495689392e-01" nType="-1"/>
          </Node>
        </Node>
      </Node>
    </BinaryTree>
    <BinaryTree type="DecisionTree" boostWeight="5.0305673186256261e-01" itree="11">
      <Node pos="s" depth="0" NCoef="0" IVar="2" Cut="6.2763438224792480e+00" cType="1" res="-9.9000000000000000e+01" rms="0.0000000000000000e+00" purity="5.1018452644348145e-01" nType="0">
        <Node pos="l" depth="1" NCoef="0" IVar="5" Cut="1.0898792724609375e+03" cType="0" res="-9.9000000000000000e+01" rms="0.0000000000000000e+00" purity="5.8595854043960571e-01" nType="0">
          <Node pos="l" depth="2" NCoef="0" IVar="-1" Cut="1.3188137817382812e+02" cType="0" res="-9.9000000000000000e+01" rms="0.0000000000000000e+00" purity="9.2772191762924194e-01" nType="1"/>
          <Node pos="r" depth="2" NCoef="0" IVar="4" Cut="1.3383470535278320e+01" cType="1" res="-9.9000000000000000e+01" rms="0.0000000000000000e+00" purity="4.6398326754570007e-01" nType="0">
            <Node pos="l" depth="3" NCoef="0" IVar="-1" Cut="0.0000000000000000e+00" cType="1" res="-9.9000000000000000e+01" rms="0.0000000000000000e+00" purity="6.7080700397491455e-01" nType="1"/>
            <Node pos="r" depth="3" NCoef="0" IVar="-1" Cut="0.0000000000000000e+00" cType="1" res="-9.9000000000000000e+01" rms="0.0000000000000000e+00" purity="3.7998613715171814e-01" nType="-1"/>
          </Node>
        </Node>
        <Node pos="r" depth="1" NCoef="0" IVar="2" Cut="6.6628818511962891e+00" cType="0" res="-9.9000000000000000e+01" rms="0.0000000000000000e+00" purity="2.7392169833183289e-01" nType="0">
          <Node pos="l" depth="2" NCoef="0" IVar="2" Cut="6.9194588661193848e+00" cType="1" res="-9.9000000000000000e+01" rms="0.0000000000000000e+00" purity="6.3548702001571655e-01" nType="0">
            <Node pos="l" depth="3" NCoef="0" IVar="-1" Cut="0.0000000000000000e+00" cType="1" res="-9.9000000000000000e+01" rms="0.0000000000000000e+00" purity="8.1170898675918579e-01" nType="1"/>
            <Node pos="r" depth="3" NCoef="0" IVar="-1" Cut="0.0000000000000000e+00" cType="1" res="-9.9000000000000000e+01" rms="0.0000000000000000e+00" purity="4.9563202261924744e-01" nType="-1"/>
          </Node>
          <Node pos="r" depth="2" NCoef="0" IVar="-1" Cut="2.4986600875854492e+00" cType="1" res="-9.9000000000000000e+01" rms="0.0000000000000000e+00" purity="1.5074737370014191e-01" nType="-1"/>
        </Node>
      </Node>
    </BinaryTree>
    <BinaryTree type="DecisionTree" boostWeight="3.3778517601236407e-01" itree="12">
      <Node pos="s" depth="0" NCoef="0" IVar="4" Cut="1.6336614608764648e+01" cType="1" res="-9.9000000000000000e+01" rms="0.0000000000000000e+00" purity="4.5688879489898682e-01" nType="0">
        <Node pos="l" depth="1" NCoef="0" IVar="6" Cut="1.7201684570312500e+02" cType="0" res="-9.9000000000000000e+01" rms="0.0000000000000000e+00" purity="5.2888983488082886e-01" nType="0">
          <Node pos="l" depth="2" NCoef="0" IVar="-1" Cut="8.7824987792968750e+02" cType="0" res="-9.9000000000000000e+01" rms="0.0000000000000000e+00" purity="9.1658222675323486e-01" nType="1"/>
          <Node pos="r" depth="2" NCoef="0" IVar="5" Cut="1.7768356933593750e+03" cType="0" res="-9.9000000000000000e+01" rms="0.0000000000000000e+00" purity="4.8507559299468994e-01" nType="0">
            <Node pos="l" depth="3" NCoef="0" IVar="-1" Cut="0.0000000000000000e+00" cType="1" res="-9.9000000000000000e+01" rms="0.0000000000000000e+00" purity="1.0000000000000000e+00" nType="1"/>
            <Node pos="r" depth="3" NCoef="0" IVar="-1" Cut="0.0000000000000000e+00" cType="1" res="-9.9000000000000000e+01" rms="0.0000000000000000e+00" purity="4.5480036735534668e-01" nType="-1"/>
          </Node>
        </Node>
        <Node pos="r" depth="1" NCoef="0" IVar="0" Cut="2.4204254150390625e+00" cType="1" res="-9.9000000000000000e+01" rms="0.0000000000000000e+00" purity="2.6394006609916687e-01" nType="0">
          <Node pos="l" depth="2" NCoef="0" IVar="0" Cut="2.2716596126556396e+00" cType="0" res="-9.9000000000000000e+01" rms="0.0000000000000000e+00" purity="5.6197685003280640e-01" nType="0">
            <Node pos="l" depth="3" NCoef="0" IVar="-1" Cut="0.0000000000000000e+00" cType="1" res="-9.9000000000000000e+01" rms="0.0000000000000000e+00" purity="8.2356780767440796e-01" nType="1"/>
            <Node pos="r" depth="3" NCoef="0" IVar="-1" Cut="0.0000000000000000e+00" cType="1" res="-9.9000000000000000e+01" rms="0.0000000000000000e+00" purity="3.9386191964149475e-01" nType="-1"/>
          </Node>
          <Node pos="r" depth="2" NCoef="0" IVar="-1" Cut="6.7400956153869629e+00" cType="0" res="-9.9000000000000000e+01" rms="0.0000000000000000e+00" purity="1.2666994333267212e-01" nType="-1"/>
        </Node>
      </Node>
    </BinaryTree>
    <BinaryTree type="DecisionTree" boostWeight="4.6659385758747429e-01" itree="13">
      <Node pos="s" depth="0" NCoef="0" IVar="0" Cut="2.2274978160858154e+00" cType="0" res="-9.9000000000000000e+01" rms="0.0000000000000000e+00" purity="5.6254392862319946e-01" nType="0">
        <Node pos="l" depth="1" NCoef="0" IVar="3" Cut="4.4018263816833496e+00" cType="0" res="-9.9000000000000000e+01" rms="0.0000000000000000e+00" purity="6.6302490234375000e-01" nType="0">
          <Node pos="l" depth="2" NCoef="0" IVar="-1" Cut="-3.3577284812927246e+00" cType="0" res="-9.9000000000000000e+01" rms="0.0000000000000000e+00" purity="7.7975779771804810e-01" nType="1"/>
          <Node pos="r" depth="2" NCoef="0" IVar="5" Cut="1.2467819824218750e+03" cType="0" res="-9.9000000000000000e+01" rms="0.0000000000000000e+00" purity="4.8515006899833679e-01" nType="0">
            <Node pos="l" depth="3" NCoef="0" IVar="-1" Cut="0.0000000000000000e+00" cType="1" res="-9.9000000000000000e+01" rms="0.0000000000000000e+00" purity="9.7972911596298218e-01" nType="1"/>
            <Node pos="r" depth="3" NCoef="0" IVar="-1" Cut="0.0000000000000000e+00" cType="1" res="-9.9000000000000000e+01" rms="0.0000000000000000e+00" purity="3.9624691009521484e-01" nType="-1"/>
          </Node>
        </Node>
        <Node pos="r" depth="1" NCoef="0" IVar="3" Cut="6.7916164398193359e+00" cType="1" res="-9.9000000000000000e+01" rms="0.0000000000000000e+00" purity="3.9593455195426941e-01" nType="0">
          <Node pos="l" depth="2" NCoef="0" IVar="5" Cut="1.3321105957031250e+03" cType="0" res="-9.9000000000000000e+01" rms="0.0000000000000000e+00" purity="5.4621291160583496e-01" nType="0">
            <Node pos="l" depth="3" NCoef="0" IVar="-1" Cut="0.0000000000000000e+00" cType="1" res="-9.9000000000000000e+01" rms="0.0000000000000000e+00" purity="8.0332601070404053e-01" nType="1"/>
            <Node pos="r" depth="3" NCoef="0" IVar="-1" Cut="0.0000000000000000e+00" cType="1" res="-9.9000000000000000e+01" rms="0.0000000000000000e+00" purity="4.7168713808059692e-01" nType="-1"/>
          </Node>
          <Node pos="r" depth="2" NCoef="0" IVar="-1" Cut="0.0000000000000000e+00" cType="1" res="-9.9000000000000000e+01" rms="0.0000000000000000e+00" purity="1.1523558199405670e-01" nType="-1"/>
        </Node>
      </Node>
    </BinaryTree>
    <BinaryTree type="DecisionTree" boostWeight="4.7873754954851838e-01" itree="14">
      <Node pos="s" depth="0" NCoef="0" IVar="1" Cut="-3.1953997611999512e+00" cType="1" res="-9.9000000000000000e+01" rms="0.0000000000000000e+00" purity="5.8560967445373535e-01" nType="0">
        <Node pos="l" depth="1" NCoef="0" IVar="-1" Cut="1.1951606445312500e+03" cType="0" res="-9.9000000000000000e+01" rms="0.0000000000000000e+00" purity="8.2785618305206299e-01" nType="1"/>
        <Node pos="r" depth="1" NCoef="0" IVar="2" Cut="5.3647437095642090e+00" cType="1" res="-9.9000000000000000e+01" rms="0.0000000000000000e+00" purity="5.4420560598373413e-01" nType="0">
          <Node pos="l" depth="2" NCoef="0" IVar="5" Cut="8.4491918945312500e+02" cType="0" res="-9.9000000000000000e+01" rms="0.0000000000000000e+00" purity="6.5924221277236938e-01" nType="0">
            <Node pos="l" depth="3" NCoef="0" IVar="-1" Cut="0.0000000000000000e+00" cType="1" res="-9.9000000000000000e+01" rms="0.0000000000000000e+00" purity="8.1305468082427979e-01" nType="1"/>
            <Node pos="r" depth="3" NCoef="0" IVar="-1" Cut="0.0000000000000000e+00" cType="1" res="-9.9000000000000000e+01" rms="0.0000000000000000e+00" purity="3.9680695533752441e-01" nType="-1"/>
          </Node>
          <Node pos="r" depth="2" NCoef="0" IVar="6" Cut="1.7208215332031250e+02" cType="0" res="-9.9000000000000000e+01" rms="0.0000000000000000e+00" purity="4.0632274746894836e-01" nType="0">
            <Node pos="l" depth="3" NCoef="0" IVar="-1" Cut="0.0000000000000000e+00" cType="1" res="-9.9000000000000000e+01" rms="0.0000000000000000e+00" purity="1.0000000000000000e+00" nType="1"/>
            <Node pos="r" depth="3" NCoef="0" IVar="-1" Cut="0.0000000000000000e+00" cType="1" res="-9.9000000000000000e+01" rms="0.0000000000000000e+00" purity="3.5892036557197571e-01" nType="-1"/>
          </Node>
        </Node>
      </Node>
    </BinaryTree>
    <BinaryTree type="DecisionTree" boostWeight="3.8741832835224810e-01" itree="15">
      <Node pos="s" depth="0" NCoef="0" IVar="3" Cut="6.3868784904479980e+00" cType="0" res="-9.9000000000000000e+01" rms="0.0000000000000000e+00" purity="5.7828301191329956e-01" nType="0">
        <Node pos="l" depth="1" NCoef="0" IVar="-1" Cut="9.7953497314453125e+02" cType="0" res="-9.9000000000000000e+01" rms="0.0000000000000000e+00" purity="9.5029842853546143e-01" nType="1"/>
        <Node pos="r" depth="1" NCoef="0" IVar="4" Cut="1.5116867065429688e+01" cType="1" res="-9.9000000000000000e+01" rms="0.0000000000000000e+00" purity="5.3282552957534790e-01" nType="0">
          <Node pos="l" depth="2" NCoef="0" IVar="-1" Cut="5.1144409179687500e+00" cType="1" res="-9.9000000000000000e+01" rms="0.0000000000000000e+00" purity="6.2009429931640625e-01" nType="1"/>
          <Node pos="r" depth="2" NCoef="0" IVar="6" Cut="1.8875527954101562e+02" cType="0" res="-9.9000000000000000e+01" rms="0.0000000000000000e+00" purity="3.1361085176467896e-01" nType="0">
            <Node pos="l" depth="3" NCoef="0" IVar="-1" Cut="0.0000000000000000e+00" cType="1" res="-9.9000000000000000e+01" rms="0.0000000000000000e+00" purity="6.3693302869796753e-01" nType="1"/>
            <Node pos="r" depth="3" NCoef="0" IVar="-1" Cut="0.0000000000000000e+00" cType="1" res="-9.9000000000000000e+01" rms="0.0000000000000000e+00" purity="2.4818289279937744e-01" nType="-1"/>
          </Node>
        </Node>
      </Node>
    </BinaryTree>
    <BinaryTree type="DecisionTree" boostWeight="3.5568302211147107e-01" itree="16">
      <Node pos="s" depth="0" NCoef="0" IVar="3" Cut="5.2936902046203613e+00" cType="1" res="-9.9000000000000000e+01" rms="0.0000000000000000e+00" purity="5.7840210199356079e-01" nType="0">
        <Node pos="l" depth="1" NCoef="0" IVar="-1" Cut="1.4712321472167969e+02" cType="0" res="-9.9000000000000000e+01" rms="0.0000000000000000e+00" purity="6.5762972831726074e-01" nType="1"/>
        <Node pos="r" depth="1" NCoef="0" IVar="3" Cut="8.0317726135253906e+00" cType="0" res="-9.9000000000000000e+01" rms="0.0000000000000000e+00" purity="4.6323499083518982e-01" nType="0">
          <Node pos="l" depth="2" NCoef="0" IVar="-1" Cut="0.0000000000000000e+00" cType="1" res="-9.9000000000000000e+01" rms="0.0000000000000000e+00" purity="1.0000000000000000e+00" nType="1"/>
          <Node pos="r" depth="2" NCoef="0" IVar="1" Cut="2.9873919486999512e+00" cType="0" res="-9.9000000000000000e+01" rms="0.0000000000000000e+00" purity="4.1680121421813965e-01" nType="0">
            <Node pos="l" depth="3" NCoef="0" IVar="-1" Cut="0.0000000000000000e+00" cType="1" res="-9.9000000000000000e+01" rms="0.0000000000000000e+00" purity="7.0487642288208008e-01" nType="1"/>
            <Node pos="r" depth="3" NCoef="0" IVar="-1" Cut="0.0000000000000000e+00" cType="1" res="-9.9000000000000000e+01" rms="0.0000000000000000e+00" purity="3.4727561473846436e-01" nType="-1"/>
          </Node>
        </Node>
      </Node>
    </BinaryTree>
    <BinaryTree type="DecisionTree" boostWeight="3.1815785720874240e-01" itree="17">
      <Node pos="s" depth="0" NCoef="0" IVar="4" Cut="1.7989187240600586e+01" cType="1" res="-9.9000000000000000e+01" rms="0.0000000000000000e+00" purity="4.6442610025405884e-01" nType="0">
        <Node pos="l" depth="1" NCoef="0" IVar="6" Cut="1.0602648162841797e+02" cType="0" res="-9.9000000000000000e+01" rms="0.0000000000000000e+00" purity="5.0484520196914673e-01" nType="0">
          <Node pos="l" depth="2" NCoef="0" IVar="1" Cut="-3.4023480415344238e+00" cType="0" res="-9.9000000000000000e+01" rms="0.0000000000000000e+00" purity="5.4036593437194824e-01" nType="0">
            <Node pos="l" depth="3" NCoef="0" IVar="-1" Cut="0.0000000000000000e+00" cType="1" res="-9.9000000000000000e+01" rms="0.0000000000000000e+00" purity="5.9470099210739136e-01" nType="1"/>
            <Node pos="r" depth="3" NCoef="0" IVar="-1" Cut="0.0000000000000000e+00" cType="1" res="-9.9000000000000000e+01" rms="0.0000000000000000e+00" purity="3.1339332461357117e-01" nType="-1"/>
          </Node>
          <Node pos="r" depth="2" NCoef="0" IVar="-1" Cut="2.3601880073547363e+00" cType="0" res="-9.9000000000000000e+01" rms="0.0000000000000000e+00" purity="2.4423977732658386e-01" nType="-1"/>
        </Node>
        <Node pos="r" depth="1" NCoef="0" IVar="-1" Cut="0.0000000000000000e+00" cType="1" res="-9.9000000000000000e+01" rms="0.0000000000000000e+00" purity="1.6808354854583740e-01" nType="-1"/>
      </Node>
    </BinaryTree>
    <BinaryTree type="DecisionTree" boostWeight="4.7449511553252871e-01" itree="18">
      <Node pos="s" depth="0" NCoef="0" IVar="2" Cut="5.1778101921081543e+00" cType="1" res="-9.9000000000000000e+01" rms="0.0000000000000000e+00" purity="4.8402437567710876e-01" nType="0">
        <Node pos="l" depth="1" NCoef="0" IVar="4" Cut="1.7554506301879883e+01" cType="1" res="-9.9000000000000000e+01" rms="0.0000000000000000e+00" purity="6.1696076393127441e-01" nType="0">
          <Node pos="l" depth="2" NCoef="0" IVar="-1" Cut="8.0644030761718750e+02" cType="0" res="-9.9000000000000000e+01" rms="0.0000000000000000e+00" purity="6.8173223733901978e-01" nType="1"/>
          <Node pos="r" depth="2" NCoef="0" IVar="-1" Cut="0.0000000000000000e+00" cType="1" res="-9.9000000000000000e+01" rms="0.0000000000000000e+00" purity="3.3251446485519409e-01" nType="-1"/>
        </Node>
        <Node pos="r" depth="1" NCoef="0" IVar="5" Cut="1.1889299316406250e+03" cType="0" res="-9.9000000000000000e+01" rms="0.0000000000000000e+00" purity="3.9758753776550293e-01" nType="0">
          <Node pos="l" depth="2" NCoef="0" IVar="4" Cut="1.3637287139892578e+01" cType="0" res="-9.9000000000000000e+01" rms="0.0000000000000000e+00" purity="5.3001850843429565e-01" nType="0">
            <Node pos="l" depth="3" NCoef="0" IVar="-1" Cut="0.0000000000000000e+00" cType="1" res="-9.9000000000000000e+01" rms="0.0000000000000000e+00" purity="8.6374902725219727e-01" nType="1"/>
            <Node pos="r" depth="3" NCoef="0" IVar="-1" Cut="0.0000000000000000e+00" cType="1" res="-9.9000000000000000e+01" rms="0.0000000000000000e+00" purity="3.3901798725128174e-01" nType="-1"/>
          </Node>
          <Node pos="r" depth="2" NCoef="0" IVar="1" Cut="3.3116009235382080e+00" cType="0" res="-9.9000000000000000e+01" rms="0.0000000000000000e+00" purity="2.9696679115295410e-01" nType="0">
            <Node pos="l" depth="3" NCoef="0" IVar="-1" Cut="0.0000000000000000e+00" cType="1" res="-9.9000000000000000e+01" rms="0.0000000000000000e+00" purity="8.3545082807540894e-01" nType="1"/>
            <Node pos="r" depth="3" NCoef="0" IVar="-1" Cut="0.0000000000000000e+00" cType="1" res="-9.9000000000000000e+01" rms="0.0000000000000000e+00" purity="2.4869900941848755e-01" nType="-1"/>
          </Node>
        </Node>
      </Node>
    </BinaryTree>
    <BinaryTree type="DecisionTree" boostWeight="2.6990598058561216e-01" itree="19">
      <Node pos="s" depth="0" NCoef="0" IVar="6" Cut="1.7090420532226562e+02" cType="0" res="-9.9000000000000000e+01" rms="0.0000000000000000e+00" purity="5.6934094429016113e-01" nType="0">
        <Node pos="l" depth="1" NCoef="0" IVar="5" Cut="1.9444237060546875e+03" cType="1" res="-9.9000000000000000e+01" rms="0.0000000000000000e+00" purity="8.0086398124694824e-01" nType="0">
          <Node pos="l" depth="2" NCoef="0" IVar="-1" Cut="9.3586389160156250e+02" cType="0" res="-9.9000000000000000e+01" rms="0.0000000000000000e+00" purity="9.0433180332183838e-01" nType="1"/>
          <Node pos="r" depth="2" NCoef="0" IVar="-1" Cut="0.0000000000000000e+00" cType="1" res="-9.9000000000000000e+01" rms="0.0000000000000000e+00" purity="4.4722679257392883e-01" nType="-1"/>
        </Node>
        <Node pos="r" depth="1" NCoef="0" IVar="6" Cut="1.6471798706054688e+02" cType="1" res="-9.9000000000000000e+01" rms="0.0000000000000000e+00" purity="5.0284969806671143e-01" nType="0">
          <Node pos="l" depth="2" NCoef="0" IVar="-1" Cut="1.4419482421875000e+03" cType="0" res="-9.9000000000000000e+01" rms="0.0000000000000000e+00" purity="5.4433500766754150e-01" nType="1"/>
          <Node pos="r" depth="2" NCoef="0" IVar="-1" Cut="0.0000000000000000e+00" cType="1" res="-9.9000000000000000e+01" rms="0.0000000000000000e+00" purity="1.5612058341503143e-01" nType="-1"/>
        </Node>
      </Node>
    </BinaryTree>
    <BinaryTree type="DecisionTree" boostWeight="4.6739084860980012e-01" itree="20">
      <Node pos="s" depth="0" NCoef="0" IVar="3" Cut="5.9060668945312500e+00" cType="0" res="-9.9000000000000000e+01" rms="0.0000000000000000e+00" purity="5.9152156114578247e-01" nType="0">
        <Node pos="l" depth="1" NCoef="0" IVar="-1" Cut="8.6420794677734375e+02" cType="0" res="-9.9000000000000000e+01" rms="0.0000000000000000e+00" purity="9.2825144529342651e-01" nType="1"/>
        <Node pos="r" depth="1" NCoef="0" IVar="5" Cut="7.2968585205078125e+02" cType="0" res="-9.9000000000000000e+01" rms="0.0000000000000000e+00" purity="5.1301777362823486e-01" nType="0">
          <Node pos="l" depth="2" NCoef="0" IVar="3" Cut="4.1996288299560547e+00" cType="0" res="-9.9000000000000000e+01" rms="0.0000000000000000e+00" purity="5.7471930980682373e-01" nType="0">
            <Node pos="l" depth="3" NCoef="0" IVar="-1" Cut="0.0000000000000000e+00" cType="1" res="-9.9000000000000000e+01" rms="0.0000000000000000e+00" purity="6.9935899972915649e-01" nType="1"/>
            <Node pos="r" depth="3" NCoef="0" IVar="-1" Cut="0.0000000000000000e+00" cType="1" res="-9.9000000000000000e+01" rms="0.0000000000000000e+00" purity="4.2033642530441284e-01" nType="-1"/>
          </Node>
          <Node pos="r" depth="2" NCoef="0" IVar="-1" Cut="1.3833001136779785e+01" cType="1" res="-9.9000000000000000e+01" rms="0.0000000000000000e+00" purity="2.2166442871093750e-01" nType="-1"/>
        </Node>
      </Node>
    </BinaryTree>
    <BinaryTree type="DecisionTree" boostWeight="2.7884261154331763e-01" itree="21">
      <Node pos="s" depth="0" NCoef="0" IVar="5" Cut="1.3421757812500000e+03" cType="0" res="-9.9000000000000000e+01" rms="0.0000000000000000e+00" purity="5.5119818449020386e-01" nType="0">
        <Node pos="l" depth="1" NCoef="0" IVar="5" Cut="2.0102351074218750e+03" cType="1" res="-9.9000000000000000e+01" rms="0.0000000000000000e+00" purity="7.3404818773269653e-01" nType="0">
          <Node pos="l" depth="2" NCoef="0" IVar="-1" Cut="1.2280197906494141e+02" cType="0" res="-9.9000000000000000e+01" rms="0.0000000000000000e+00" purity="8.7159359455108643e-01" nType="1"/>
          <Node pos="r" depth="2" NCoef="0" IVar="3" Cut="5.9526691436767578e+00" cType="1" res="-9.9000000000000000e+01" rms="0.0000000000000000e+00" purity="5.0196325778961182e-01" nType="0">
            <Node pos="l" depth="3" NCoef="0" IVar="-1" Cut="0.0000000000000000e+00" cType="1" res="-9.9000000000000000e+01" rms="0.0000000000000000e+00" purity="5.4869318008422852e-01" nType="1"/>
            <Node pos="r" depth="3" NCoef="0" IVar="-1" Cut="0.0000000000000000e+00" cType="1" res="-9.9000000000000000e+01" rms="0.0000000000000000e+00" purity="4.4200956821441650e-01" nType="-1"/>
          </Node>
        </Node>
        <Node pos="r" depth="1" NCoef="0" IVar="2" Cut="5.5961422920227051e+00" cType="1" res="-9.9000000000000000e+01" rms="0.0000000000000000e+00" purity="5.0387638807296753e-01" nType="0">
          <Node pos="l" depth="2" NCoef="0" IVar="-1" Cut="1.0646657714843750e+03" cType="0" res="-9.9000000000000000e+01" rms="0.0000000000000000e+00" purity="5.6725877523422241e-01" nType="1"/>
          <Node pos="r" depth="2" NCoef="0" IVar="4" Cut="1.1597332954406738e+01" cType="1" res="-9.9000000000000000e+01" rms="0.0000000000000000e+00" purity="3.1535857915878296e-01" nType="0">
            <Node pos="l" depth="3" NCoef="0" IVar="-1" Cut="0.0000000000000000e+00" cType="1" res="-9.9000000000000000e+01" rms="0.0000000000000000e+00" purity="5.7414209842681885e-01" nType="1"/>
            <Node pos="r" depth="3" NCoef="0" IVar="-1" Cut="0.0000000000000000e+00" cType="1" res="-9.9000000000000000e+01" rms="0.0000000000000000e+00" purity="2.3508483171463013e-01" nType="-1"/>
          </Node>
        </Node>
      </Node>
    </BinaryTree>
    <BinaryTree type="DecisionTree" boostWeight="2.9260237313449189e-01" itree="22">
      <Node pos="s" depth="0" NCoef="0" IVar="1" Cut="3.1037213802337646e+00" cType="0" res="-9.9000000000000000e+01" rms="0.0000000000000000e+00" purity="5.3210049867630005e-01" nType="0">
        <Node pos="l" depth="1" NCoef="0" IVar="3" Cut="4.5068712234497070e+00" cType="0" res="-9.9000000000000000e+01" rms="0.0000000000000000e+00" purity="7.4229472875595093e-01" nType="0">
          <Node pos="l" depth="2" NCoef="0" IVar="-1" Cut="5.0028820037841797e+00" cType="0" res="-9.9000000000000000e+01" rms="0.0000000000000000e+00" purity="9.7201985120773315e-01" nType="1"/>
          <Node pos="r" depth="2" NCoef="0" IVar="2" Cut="5.7918887138366699e+00" cType="1" res="-9.9000000000000000e+01" rms="0.0000000000000000e+00" purity="6.0447776317596436e-01" nType="0">
            <Node pos="l" depth="3" NCoef="0" IVar="-1" Cut="0.0000000000000000e+00" cType="1" res="-9.9000000000000000e+01" rms="0.0000000000000000e+00" purity="8.0268365144729614e-01" nType="1"/>
            <Node pos="r" depth="3" NCoef="0" IVar="-1" Cut="0.0000000000000000e+00" cType="1" res="-9.9000000000000000e+01" rms="0.0000000000000000e+00" purity="3.9578023552894592e-01" nType="-1"/>
          </Node>
        </Node>
        <Node pos="r" depth="1" NCoef="0" IVar="6" Cut="2.2606129455566406e+02" cType="0" res="-9.9000000000000000e+01" rms="0.0000000000000000e+00" purity="4.6829155087471008e-01" nType="0">
          <Node pos="l" depth="2" NCoef="0" IVar="-1" Cut="1.7859352111816406e+01" cType="0" res="-9.9000000000000000e+01" rms="0.0000000000000000e+00" purity="8.5895061492919922e-01" nType="1"/>
          <Node pos="r" depth="2" NCoef="0" IVar="-1" Cut="7.0863854980468750e+02" cType="0" res="-9.9000000000000000e+01" rms="0.0000000000000000e+00" purity="4.3206402659416199e-01" nType="-1"/>
        </Node>
      </Node>
    </BinaryTree>
    <BinaryTree type="DecisionTree" boostWeight="4.3676628815144086e-01" itree="23">
      <Node pos="s" depth="0" NCoef="0" IVar="5" Cut="9.7377990722656250e+02" cType="0" res="-9.9000000000000000e+01" rms="0.0000000000000000e+00" purity="5.4003542661666870e-01" nType="0">
        <Node pos="l" depth="1" NCoef="0" IVar="2" Cut="5.4547696113586426e+00" cType="1" res="-9.9000000000000000e+01" rms="0.0000000000000000e+00" purity="6.4479935169219971e-01" nType="0">
          <Node pos="l" depth="2" NCoef="0" IVar="-1" Cut="1.6224565505981445e+01" cType="1" res="-9.9000000000000000e+01" rms="0.0000000000000000e+00" purity="9.0075677633285522e-01" nType="1"/>
          <Node pos="r" depth="2" NCoef="0" IVar="3" Cut="5.0030646324157715e+00" cType="0" res="-9.9000000000000000e+01" rms="0.0000000000000000e+00" purity="5.2825123071670532e-01" nType="0">
            <Node pos="l" depth="3" NCoef="0" IVar="-1" Cut="0.0000000000000000e+00" cType="1" res="-9.9000000000000000e+01" rms="0.0000000000000000e+00" purity="8.1904131174087524e-01" nType="1"/>
            <Node pos="r" depth="3" NCoef="0" IVar="-1" Cut="0.0000000000000000e+00" cType="1" res="-9.9000000000000000e+01" rms="0.0000000000000000e+00" purity="4.4145405292510986e-01" nType="-1"/>
          </Node>
        </Node>
        <Node pos="r" depth="1" NCoef="0" IVar="2" Cut="5.3259716033935547e+00" cType="1" res="-9.9000000000000000e+01" rms="0.0000000000000000e+00" purity="4.2799103260040283e-01" nType="0">
          <Node pos="l" depth="2" NCoef="0" IVar="5" Cut="8.3883642578125000e+02" cType="0" res="-9.9000000000000000e+01" rms="0.0000000000000000e+00" purity="4.9184593558311462e-01" nType="0">
            <Node pos="l" depth="3" NCoef="0" IVar="-1" Cut="0.0000000000000000e+00" cType="1" res="-9.9000000000000000e+01" rms="0.0000000000000000e+00" purity="7.4657815694808960e-01" nType="1"/>
            <Node pos="r" depth="3" NCoef="0" IVar="-1" Cut="0.0000000000000000e+00" cType="1" res="-9.9000000000000000e+01" rms="0.0000000000000000e+00" purity="3.7290769815444946e-01" nType="-1"/>
          </Node>
          <Node pos="r" depth="2" NCoef="0" IVar="4" Cut="1.2017405509948730e+01" cType="1" res="-9.9000000000000000e+01" rms="0.0000000000000000e+00" purity="2.4837207794189453e-01" nType="0">
            <Node pos="l" depth="3" NCoef="0" IVar="-1" Cut="0.0000000000000000e+00" cType="1" res="-9.9000000000000000e+01" rms="0.0000000000000000e+00" purity="6.0131531953811646e-01" nType="1"/>
            <Node pos="r" depth="3" NCoef="0" IVar="-1" Cut="0.0000000000000000e+00" cType="1" res="-9.9000000000000000e+01" rms="0.0000000000000000e+00" purity="9.2238157987594604e-02" nType="-1"/>
          </Node>
        </Node>
      </Node>
    </BinaryTree>
    <BinaryTree type="DecisionTree" boostWeight="3.5808539671817152e-01" itree="24">
      <Node pos="s" depth="0" NCoef="0" IVar="5" Cut="1.1423952636718750e+03" cType="0" res="-9.9000000000000000e+01" rms="0.0000000000000000e+00" purity="5.4519933462142944e-01" nType="0">
        <Node pos="l" depth="1" NCoef="0" IVar="-1" Cut="1.5383303833007812e+02" cType="0" res="-9.9000000000000000e+01" rms="0.0000000000000000e+00" purity="8.0128514766693115e-01" nType="1"/>
        <Node pos="r" depth="1" NCoef="0" IVar="4" Cut="1.6572349548339844e+01" cType="1" res="-9.9000000000000000e+01" rms="0.0000000000000000e+00" purity="4.5762267708778381e-01" nType="0">
          <Node pos="l" depth="2" NCoef="0" IVar="2" Cut="5.6780300140380859e+00" cType="1" res="-9.9000000000000000e+01" rms="0.0000000000000000e+00" purity="5.0547516345977783e-01" nType="0">
            <Node pos="l" depth="3" NCoef="0" IVar="-1" Cut="0.0000000000000000e+00" cType="1" res="-9.9000000000000000e+01" rms="0.0000000000000000e+00" purity="5.6094473600387573e-01" nType="1"/>
            <Node pos="r" depth="3" NCoef="0" IVar="-1" Cut="0.0000000000000000e+00" cType="1" res="-9.9000000000000000e+01" rms="0.0000000000000000e+00" purity="2.7953308820724487e-01" nType="-1"/>
          </Node>
          <Node pos="r" depth="2" NCoef="0" IVar="-1" Cut="0.0000000000000000e+00" cType="1" res="-9.9000000000000000e+01" rms="0.0000000000000000e+00" purity="1.3880576193332672e-01" nType="-1"/>
        </Node>
      </Node>
    </BinaryTree>
    <BinaryTree type="DecisionTree" boostWeight="3.6269593569769543e-01" itree="25">
      <Node pos="s" depth="0" NCoef="0" IVar="2" Cut="6.3993892669677734e+00" cType="0" res="-9.9000000000000000e+01" rms="0.0000000000000000e+00" purity="5.1984035968780518e-01" nType="0">
        <Node pos="l" depth="1" NCoef="0" IVar="-1" Cut="-3.1978433132171631e+00" cType="0" res="-9.9000000000000000e+01" rms="0.0000000000000000e+00" purity="9.2158246040344238e-01" nType="1"/>
        <Node pos="r" depth="1" NCoef="0" IVar="2" Cut="4.9804558753967285e+00" cType="1" res="-9.9000000000000000e+01" rms="0.0000000000000000e+00" purity="4.9144086241722107e-01" nType="0">
          <Node pos="l" depth="2" NCoef="0" IVar="0" Cut="2.3553233146667480e+00" cType="1" res="-9.9000000000000000e+01" rms="0.0000000000000000e+00" purity="6.5571033954620361e-01" nType="0">
            <Node pos="l" depth="3" NCoef="0" IVar="-1" Cut="0.0000000000000000e+00" cType="1" res="-9.9000000000000000e+01" rms="0.0000000000000000e+00" purity="8.4054690599441528e-01" nType="1"/>
            <Node pos="r" depth="3" NCoef="0" IVar="-1" Cut="0.0000000000000000e+00" cType="1" res="-9.9000000000000000e+01" rms="0.0000000000000000e+00" purity="4.8755884170532227e-01" nType="-1"/>
          </Node>
          <Node pos="r" depth="2" NCoef="0" IVar="4" Cut="1.2695419311523438e+01" cType="1" res="-9.9000000000000000e+01" rms="0.0000000000000000e+00" purity="4.0703889727592468e-01" nType="0">
            <Node pos="l" depth="3" NCoef="0" IVar="-1" Cut="0.0000000000000000e+00" cType="1" res="-9.9000000000000000e+01" rms="0.0000000000000000e+00" purity="6.1236715316772461e-01" nType="1"/>
            <Node pos="r" depth="3" NCoef="0" IVar="-1" Cut="0.0000000000000000e+00" cType="1" res="-9.9000000000000000e+01" rms="0.0000000000000000e+00" purity="3.3740723133087158e-01" nType="-1"/>
          </Node>
        </Node>
      </Node>
    </BinaryTree>
    <BinaryTree type="DecisionTree" boostWeight="3.8914041167323610e-01" itree="26">
      <Node pos="s" depth="0" NCoef="0" IVar="6" Cut="1.5169609069824219e+02" cType="0" res="-9.9000000000000000e+01" rms="0.0000000000000000e+00" purity="5.2061778306961060e-01" nType="0">
        <Node pos="l" depth="1" NCoef="0" IVar="0" Cut="2.1005432605743408e+00" cType="0" res="-9.9000000000000000e+01" rms="0.0000000000000000e+00" purity="6.9074958562850952e-01" nType="0">
          <Node pos="l" depth="2" NCoef="0" IVar="-1" Cut="6.5693869590759277e+00" cType="0" res="-9.9000000000000000e+01" rms="0.0000000000000000e+00" purity="7.5228214263916016e-01" nType="1"/>
          <Node pos="r" depth="2" NCoef="0" IVar="-1" Cut="0.0000000000000000e+00" cType="1" res="-9.9000000000000000e+01" rms="0.0000000000000000e+00" purity="3.3441567420959473e-01" nType="-1"/>
        </Node>
        <Node pos="r" depth="1" NCoef="0" IVar="6" Cut="1.2697357940673828e+02" cType="0" res="-9.9000000000000000e+01" rms="0.0000000000000000e+00" purity="4.4531455636024475e-01" nType="0">
          <Node pos="l" depth="2" NCoef="0" IVar="3" Cut="4.5003929138183594e+00" cType="1" res="-9.9000000000000000e+01" rms="0.0000000000000000e+00" purity="5.4856473207473755e-01" nType="0">
            <Node pos="l" depth="3" NCoef="0" IVar="-1" Cut="0.0000000000000000e+00" cType="1" res="-9.9000000000000000e+01" rms="0.0000000000000000e+00" purity="7.3043566942214966e-01" nType="1"/>
            <Node pos="r" depth="3" NCoef="0" IVar="-1" Cut="0.0000000000000000e+00" cType="1" res="-9.9000000000000000e+01" rms="0.0000000000000000e+00" purity="4.1386359930038452e-01" nType="-1"/>
          </Node>
          <Node pos="r" depth="2" NCoef="0" IVar="3" Cut="4.9405250549316406e+00" cType="0" res="-9.9000000000000000e+01" rms="0.0000000000000000e+00" purity="3.5492888092994690e-01" nType="0">
            <Node pos="l" depth="3" NCoef="0" IVar="-1" Cut="0.0000000000000000e+00" cType="1" res="-9.9000000000000000e+01" rms="0.0000000000000000e+00" purity="6.9346421957015991e-01" nType="1"/>
            <Node pos="r" depth="3" NCoef="0" IVar="-1" Cut="0.0000000000000000e+00" cType="1" res="-9.9000000000000000e+01" rms="0.0000000000000000e+00" purity="3.2820421457290649e-01" nType="-1"/>
          </Node>
        </Node>
      </Node>
    </BinaryTree>
    <BinaryTree type="DecisionTree" boostWeight="3.2149833068550038e-01" itree="27">
      <Node pos="s" depth="0" NCoef="0" IVar="5" Cut="1.3552133789062500e+03" cType="0" res="-9.9000000000000000e+01" rms="0.0000000000000000e+00" purity="4.9670174717903137e-01" nType="0">
        <Node pos="l" depth="1" NCoef="0" IVar="5" Cut="2.2256491699218750e+03" cType="1" res="-9.9000000000000000e+01" rms="0.0000000000000000e+00" purity="8.0566710233688354e-01" nType="0">
          <Node pos="l" depth="2" NCoef="0" IVar="-1" Cut="2.7072544097900391e+00" cType="1" res="-9.9000000000000000e+01" rms="0.0000000000000000e+00" purity="9.3677139282226562e-01" nType="1"/>
          <Node pos="r" depth="2" NCoef="0" IVar="-1" Cut="0.0000000000000000e+00" cType="1" res="-9.9000000000000000e+01" rms="0.0000000000000000e+00" purity="4.9725529551506042e-01" nType="-1"/>
        </Node>
        <Node pos="r" depth="1" NCoef="0" IVar="0" Cut="2.1958236694335938e+00" cType="0" res="-9.9000000000000000e+01" rms="0.0000000000000000e+00" purity="4.3706056475639343e-01" nType="0">
          <Node pos="l" depth="2" NCoef="0" IVar="3" Cut="5.8931841850280762e+00" cType="0" res="-9.9000000000000000e+01" rms="0.0000000000000000e+00" purity="5.2925610542297363e-01" nType="0">
            <Node pos="l" depth="3" NCoef="0" IVar="-1" Cut="0.0000000000000000e+00" cType="1" res="-9.9000000000000000e+01" rms="0.0000000000000000e+00" purity="8.3492738008499146e-01" nType="1"/>
            <Node pos="r" depth="3" NCoef="0" IVar="-1" Cut="0.0000000000000000e+00" cType="1" res="-9.9000000000000000e+01" rms="0.0000000000000000e+00" purity="4.7843140363693237e-01" nType="-1"/>
          </Node>
          <Node pos="r" depth="2" NCoef="0" IVar="-1" Cut="2.1583197116851807e+00" cType="1" res="-9.9000000000000000e+01" rms="0.0000000000000000e+00" purity="2.5688123703002930e-01" nType="-1"/>
        </Node>
      </Node>
    </BinaryTree>
    <BinaryTree type="DecisionTree" boostWeight="4.2315134479524952e-01" itree="28">
      <Node pos="s" depth="0" NCoef="0" IVar="6" Cut="1.3733978271484375e+02" cType="1" res="-9.9000000000000000e+01" rms="0.0000000000000000e+00" purity="5.5689525604248047e-01" nType="0">
        <Node pos="l" depth="1" NCoef="0" IVar="5" Cut="8.7567730712890625e+02" cType="0" res="-9.9000000000000000e+01" rms="0.0000000000000000e+00" purity="6.9782435894012451e-01" nType="0">
          <Node pos="l" depth="2" NCoef="0" IVar="-1" Cut="6.1052117347717285e+00" cType="1" res="-9.9000000000000000e+01" rms="0.0000000000000000e+00" purity="7.7861267328262329e-01" nType="1"/>
          <Node pos="r" depth="2" NCoef="0" IVar="3" Cut="4.2951865196228027e+00" cType="1" res="-9.9000000000000000e+01" rms="0.0000000000000000e+00" purity="5.0832098722457886e-01" nType="0">
            <Node pos="l" depth="3" NCoef="0" IVar="-1" Cut="0.0000000000000000e+00" cType="1" res="-9.9000000000000000e+01" rms="0.0000000000000000e+00" purity="6.5080654621124268e-01" nType="1"/>
            <Node pos="r" depth="3" NCoef="0" IVar="-1" Cut="0.0000000000000000e+00" cType="1" res="-9.9000000000000000e+01" rms="0.0000000000000000e+00" purity="2.9996895790100098e-01" nType="-1"/>
          </Node>
        </Node>
        <Node pos="r" depth="1" NCoef="0" IVar="6" Cut="1.5097860717773438e+02" cType="0" res="-9.9000000000000000e+01" rms="0.0000000000000000e+00" purity="4.5506221055984497e-01" nType="0">
          <Node pos="l" depth="2" NCoef="0" IVar="0" Cut="2.5820000171661377e+00" cType="0" res="-9.9000000000000000e+01" rms="0.0000000000000000e+00" purity="5.8993738889694214e-01" nType="0">
            <Node pos="l" depth="3" NCoef="0" IVar="-1" Cut="0.0000000000000000e+00" cType="1" res="-9.9000000000000000e+01" rms="0.0000000000000000e+00" purity="9.3146175146102905e-01" nType="1"/>
            <Node pos="r" depth="3" NCoef="0" IVar="-1" Cut="0.0000000000000000e+00" cType="1" res="-9.9000000000000000e+01" rms="0.0000000000000000e+00" purity="4.8725914955139160e-01" nType="-1"/>
          </Node>
          <Node pos="r" depth="2" NCoef="0" IVar="1" Cut="3.0268018245697021e+00" cType="1" res="-9.9000000000000000e+01" rms="0.0000000000000000e+00" purity="2.8736075758934021e-01" nType="0">
            <Node pos="l" depth="3" NCoef="0" IVar="-1" Cut="0.0000000000000000e+00" cType="1" res="-9.9000000000000000e+01" rms="0.0000000000000000e+00" purity="5.2859985828399658e-01" nType="1"/>
            <Node pos="r" depth="3" NCoef="0" IVar="-1" Cut="0.0000000000000000e+00" cType="1" res="-9.9000000000000000e+01" rms="0.0000000000000000e+00" purity="1.1487144231796265e-01" nType="-1"/>
          </Node>
        </Node>
      </Node>
    </BinaryTree>
    <BinaryTree type="DecisionTree" boostWeight="3.7293825172408013e-01" itree="29">
      <Node pos="s" depth="0" NCoef="0" IVar="6" Cut="1.5176597595214844e+02" cType="0" res="-9.9000000000000000e+01" rms="0.0000000000000000e+00" purity="6.0279875993728638e-01" nType="0">
        <Node pos="l" depth="1" NCoef="0" IVar="4" Cut="1.3996291160583496e+01" cType="0" res="-9.9000000000000000e+01" rms="0.0000000000000000e+00" purity="7.9034751653671265e-01" nType="0">
          <Node pos="l" depth="2" NCoef="0" IVar="-1" Cut="9.9389227294921875e+02" cType="0" res="-9.9000000000000000e+01" rms="0.0000000000000000e+00" purity="9.3061137199401855e-01" nType="1"/>
          <Node pos="r" depth="2" NCoef="0" IVar="4" Cut="1.3677544593811035e+01" cType="1" res="-9.9000000000000000e+01" rms="0.0000000000000000e+00" purity="4.8213204741477966e-01" nType="0">
            <Node pos="l" depth="3" NCoef="0" IVar="-1" Cut="0.0000000000000000e+00" cType="1" res="-9.9000000000000000e+01" rms="0.0000000000000000e+00" purity="6.1548942327499390e-01" nType="1"/>
            <Node pos="r" depth="3" NCoef="0" IVar="-1" Cut="0.0000000000000000e+00" cType="1" res="-9.9000000000000000e+01" rms="0.0000000000000000e+00" purity="2.5576901435852051e-01" nType="-1"/>
          </Node>
        </Node>
        <Node pos="r" depth="1" NCoef="0" IVar="2" Cut="6.0627217292785645e+00" cType="1" res="-9.9000000000000000e+01" rms="0.0000000000000000e+00" purity="5.3917288780212402e-01" nType="0">
          <Node pos="l" depth="2" NCoef="0" IVar="-1" Cut="1.1365809326171875e+03" cType="0" res="-9.9000000000000000e+01" rms="0.0000000000000000e+00" purity="5.9468626976013184e-01" nType="1"/>
          <Node pos="r" depth="2" NCoef="0" IVar="0" Cut="2.3247771263122559e+00" cType="1" res="-9.9000000000000000e+01" rms="0.0000000000000000e+00" purity="3.8609948754310608e-01" nType="0">
            <Node pos="l" depth="3" NCoef="0" IVar="-1" Cut="0.0000000000000000e+00" cType="1" res="-9.9000000000000000e+01" rms="0.0000000000000000e+00" purity="6.8975478410720825e-01" nType="1"/>
            <Node pos="r" depth="3" NCoef="0" IVar="-1" Cut="0.0000000000000000e+00" cType="1" res="-9.9000000000000000e+01" rms="0.0000000000000000e+00" purity="3.0520460009574890e-01" nType="-1"/>
          </Node>
        </Node>
      </Node>
    </BinaryTree>
    <BinaryTree type="DecisionTree" boostWeight="4.9236910831966435e-01" itree="30">
      <Node pos="s" depth="0" NCoef="0" IVar="5" Cut="9.2938952636718750e+02" cType="0" res="-9.9000000000000000e+01" rms="0.0000000000000000e+00" purity="5.8662879467010498e-01" nType="0">
        <Node pos="l" depth="1" NCoef="0" IVar="-1" Cut="1.6877052307128906e+02" cType="0" res="-9.9000000000000000e+01" rms="0.0000000000000000e+00" purity="7.1356892585754395e-01" nType="1"/>
        <Node pos="r" depth="1" NCoef="0" IVar="2" Cut="4.8058171272277832e+00" cType="1" res="-9.9000000000000000e+01" rms="0.0000000000000000e+00" purity="4.1488376259803772e-01" nType="0">
          <Node pos="l" depth="2" NCoef="0" IVar="1" Cut="-2.4387257099151611e+00" cType="0" res="-9.9000000000000000e+01" rms="0.0000000000000000e+00" purity="5.7128101587295532e-01" nType="0">
            <Node pos="l" depth="3" NCoef="0" IVar="-1" Cut="0.0000000000000000e+00" cType="1" res="-9.9000000000000000e+01" rms="0.0000000000000000e+00" purity="7.7837646007537842e-01" nType="1"/>
            <Node pos="r" depth="3" NCoef="0" IVar="-1" Cut="0.0000000000000000e+00" cType="1" res="-9.9000000000000000e+01" rms="0.0000000000000000e+00" purity="3.1080189347267151e-01" nType="-1"/>
          </Node>
          <Node pos="r" depth="2" NCoef="0" IVar="6" Cut="1.3199209594726562e+02" cType="0" res="-9.9000000000000000e+01" rms="0.0000000000000000e+00" purity="2.6926261186599731e-01" nType="0">
            <Node pos="l" depth="3" NCoef="0" IVar="-1" Cut="0.0000000000000000e+00" cType="1" res="-9.9000000000000000e+01" rms="0.0000000000000000e+00" purity="5.6641668081283569e-01" nType="1"/>
            <Node pos="r" depth="3" NCoef="0" IVar="-1" Cut="0.0000000000000000e+00" cType="1" res="-9.9000000000000000e+01" rms="0.0000000000000000e+00" purity="2.0018939673900604e-01" nType="-1"/>
          </Node>
        </Node>
      </Node>
    </BinaryTree>
    <BinaryTree type="DecisionTree" boostWeight="2.3153403518519969e-01" itree="31">
      <Node pos="s" depth="0" NCoef="0" IVar="6" Cut="2.4620198059082031e+02" cType="0" res="-9.9000000000000000e+01" rms="0.0000000000000000e+00" purity="4.6977597475051880e-01" nType="0">
        <Node pos="l" depth="1" NCoef="0" IVar="-1" Cut="0.0000000000000000e+00" cType="1" res="-9.9000000000000000e+01" rms="0.0000000000000000e+00" purity="1.0000000000000000e+00" nType="1"/>
        <Node pos="r" depth="1" NCoef="0" IVar="5" Cut="1.4447053222656250e+03" cType="0" res="-9.9000000000000000e+01" rms="0.0000000000000000e+00" purity="4.5185980200767517e-01" nType="0">
          <Node pos="l" depth="2" NCoef="0" IVar="6" Cut="1.2542868804931641e+02" cType="0" res="-9.9000000000000000e+01" rms="0.0000000000000000e+00" purity="6.3318312168121338e-01" nType="0">
            <Node pos="l" depth="3" NCoef="0" IVar="-1" Cut="0.0000000000000000e+00" cType="1" res="-9.9000000000000000e+01" rms="0.0000000000000000e+00" purity="8.2680135965347290e-01" nType="1"/>
            <Node pos="r" depth="3" NCoef="0" IVar="-1" Cut="0.0000000000000000e+00" cType="1" res="-9.9000000000000000e+01" rms="0.0000000000000000e+00" purity="3.7656727433204651e-01" nType="-1"/>
          </Node>
          <Node pos="r" depth="2" NCoef="0" IVar="-1" Cut="5.7415437698364258e+00" cType="1" res="-9.9000000000000000e+01" rms="0.0000000000000000e+00" purity="4.2208108305931091e-01" nType="-1"/>
        </Node>
      </Node>
    </BinaryTree>
    <BinaryTree type="DecisionTree" boostWeight="2.5222076070446331e-01" itree="32">
      <Node pos="s" depth="0" NCoef="0" IVar="0" Cut="2.0651860237121582e+00" cType="0" res="-9.9000000000000000e+01" rms="0.0000000000000000e+00" purity="5.2468800544738770e-01" nType="0">
        <Node pos="l" depth="1" NCoef="0" IVar="2" Cut="5.1333875656127930e+00" cType="1" res="-9.9000000000000000e+01" rms="0.0000000000000000e+00" purity="5.6174504756927490e-01" nType="0">
          <Node pos="l" depth="2" NCoef="0" IVar="-1" Cut="8.2003643798828125e+02" cType="0" res="-9.9000000000000000e+01" rms="0.0000000000000000e+00" purity="6.8110269308090210e-01" nType="1"/>
          <Node pos="r" depth="2" NCoef="0" IVar="6" Cut="1.8430549621582031e+02" cType="0" res="-9.9000000000000000e+01" rms="0.0000000000000000e+00" purity="4.8561459779739380e-01" nType="0">
            <Node pos="l" depth="3" NCoef="0" IVar="-1" Cut="0.0000000000000000e+00" cType="1" res="-9.9000000000000000e+01" rms="0.0000000000000000e+00" purity="1.0000000000000000e+00" nType="1"/>
            <Node pos="r" depth="3" NCoef="0" IVar="-1" Cut="0.0000000000000000e+00" cType="1" res="-9.9000000000000000e+01" rms="0.0000000000000000e+00" purity="4.6142047643661499e-01" nType="-1"/>
          </Node>
        </Node>
        <Node pos="r" depth="1" NCoef="0" IVar="-1" Cut="0.0000000000000000e+00" cType="1" res="-9.9000000000000000e+01" rms="0.0000000000000000e+00" purity="2.5408583879470825e-01" nType="-1"/>
      </Node>
    </BinaryTree>
    <BinaryTree type="DecisionTree" boostWeight="3.6422808940168694e-01" itree="33">
      <Node pos="s" depth="0" NCoef="0" IVar="5" Cut="1.0050112304687500e+03" cType="0" res="-9.9000000000000000e+01" rms="0.0000000000000000e+00" purity="5.7858073711395264e-01" nType="0">
        <Node pos="l" depth="1" NCoef="0" IVar="3" Cut="4.6039485931396484e+00" cType="0" res="-9.9000000000000000e+01" rms="0.0000000000000000e+00" purity="7.0730578899383545e-01" nType="0">
          <Node pos="l" depth="2" NCoef="0" IVar="-1" Cut="2.3573455810546875e+00" cType="0" res="-9.9000000000000000e+01" rms="0.0000000000000000e+00" purity="8.4203213453292847e-01" nType="1"/>
          <Node pos="r" depth="2" NCoef="0" IVar="3" Cut="4.3083009719848633e+00" cType="1" res="-9.9000000000000000e+01" rms="0.0000000000000000e+00" purity="5.7137387990951538e-01" nType="0">
            <Node pos="l" depth="3" NCoef="0" IVar="-1" Cut="0.0000000000000000e+00" cType="1" res="-9.9000000000000000e+01" rms="0.0000000000000000e+00" purity="7.3032462596893311e-01" nType="1"/>
            <Node pos="r" depth="3" NCoef="0" IVar="-1" Cut="0.0000000000000000e+00" cType="1" res="-9.9000000000000000e+01" rms="0.0000000000000000e+00" purity="3.4576693177223206e-01" nType="-1"/>
          </Node>
        </Node>
        <Node pos="r" depth="1" NCoef="0" IVar="6" Cut="9.8471984863281250e+01" cType="0" res="-9.9000000000000000e+01" rms="0.0000000000000000e+00" purity="4.6979162096977234e-01" nType="0">
          <Node pos="l" depth="2" NCoef="0" IVar="2" Cut="4.4028029441833496e+00" cType="0" res="-9.9000000000000000e+01" rms="0.0000000000000000e+00" purity="4.9879381060600281e-01" nType="0">
            <Node pos="l" depth="3" NCoef="0" IVar="-1" Cut="0.0000000000000000e+00" cType="1" res="-9.9000000000000000e+01" rms="0.0000000000000000e+00" purity="5.4119992256164551e-01" nType="1"/>
            <Node pos="r" depth="3" NCoef="0" IVar="-1" Cut="0.0000000000000000e+00" cType="1" res="-9.9000000000000000e+01" rms="0.0000000000000000e+00" purity="2.9847836494445801e-01" nType="-1"/>
          </Node>
          <Node pos="r" depth="2" NCoef="0" IVar="-1" Cut="0.0000000000000000e+00" cType="1" res="-9.9000000000000000e+01" rms="0.0000000000000000e+00" purity="1.1478368937969208e-01" nType="-1"/>
        </Node>
      </Node>
    </BinaryTree>
    <BinaryTree type="DecisionTree" boostWeight="2.6867515088890093e-01" itree="34">
      <Node pos="s" depth="0" NCoef="0" IVar="1" Cut="-4.0980668067932129e+00" cType="0" res="-9.9000000000000000e+01" rms="0.0000000000000000e+00" purity="5.5674171447753906e-01" nType="0">
        <Node pos="l" depth="1" NCoef="0" IVar="1" Cut="-2.9551537036895752e+00" cType="1" res="-9.9000000000000000e+01" rms="0.0000000000000000e+00" purity="5.7462173700332642e-01" nType="0">
          <Node pos="l" depth="2" NCoef="0" IVar="4" Cut="1.6555910110473633e+01" cType="1" res="-9.9000000000000000e+01" rms="0.0000000000000000e+00" purity="7.1429514884948730e-01" nType="0">
            <Node pos="l" depth="3" NCoef="0" IVar="-1" Cut="0.0000000000000000e+00" cType="1" res="-9.9000000000000000e+01" rms="0.0000000000000000e+00" purity="7.9879313707351685e-01" nType="1"/>
            <Node pos="r" depth="3" NCoef="0" IVar="-1" Cut="0.0000000000000000e+00" cType="1" res="-9.9000000000000000e+01" rms="0.0000000000000000e+00" purity="3.1403404474258423e-01" nType="-1"/>
          </Node>
          <Node pos="r" depth="2" NCoef="0" IVar="3" Cut="6.6678228378295898e+00" cType="0" res="-9.9000000000000000e+01" rms="0.0000000000000000e+00" purity="5.2080971002578735e-01" nType="0">
            <Node pos="l" depth="3" NCoef="0" IVar="-1" Cut="0.0000000000000000e+00" cType="1" res="-9.9000000000000000e+01" rms="0.0000000000000000e+00" purity="9.7796171903610229e-01" nType="1"/>
            <Node pos="r" depth="3" NCoef="0" IVar="-1" Cut="0.0000000000000000e+00" cType="1" res="-9.9000000000000000e+01" rms="0.0000000000000000e+00" purity="4.7775247693061829e-01" nType="-1"/>
          </Node>
        </Node>
        <Node pos="r" depth="1" NCoef="0" IVar="-1" Cut="0.0000000000000000e+00" cType="1" res="-9.9000000000000000e+01" rms="0.0000000000000000e+00" purity="1.7014455795288086e-01" nType="-1"/>
      </Node>
    </BinaryTree>
    <BinaryTree type="DecisionTree" boostWeight="1.3212814198463960e-01" itree="35">
      <Node pos="s" depth="0" NCoef="0" IVar="5" Cut="1.8311922607421875e+03" cType="0" res="-9.9000000000000000e+01" rms="0.0000000000000000e+00" purity="5.2925777435302734e-01" nType="0">
        <Node pos="l" depth="1" NCoef="0" IVar="-1" Cut="0.0000000000000000e+00" cType="1" res="-9.9000000000000000e+01" rms="0.0000000000000000e+00" purity="1.0000000000000000e+00" nType="1"/>
        <Node pos="r" depth="1" NCoef="0" IVar="5" Cut="6.3385247802734375e+02" cType="0" res="-9.9000000000000000e+01" rms="0.0000000000000000e+00" purity="5.1006352901458740e-01" nType="0">
          <Node pos="l" depth="2" NCoef="0" IVar="-1" Cut="4.3185544013977051e+00" cType="1" res="-9.9000000000000000e+01" rms="0.0000000000000000e+00" purity="5.3093856573104858e-01" nType="1"/>
          <Node pos="r" depth="2" NCoef="0" IVar="-1" Cut="1.1059534072875977e+01" cType="0" res="-9.9000000000000000e+01" rms="0.0000000000000000e+00" purity="1.9459889829158783e-01" nType="-1"/>
        </Node>
      </Node>
    </BinaryTree>
    <BinaryTree type="DecisionTree" boostWeight="4.6482378858316575e-01" itree="36">
      <Node pos="s" depth="0" NCoef="0" IVar="5" Cut="9.2613110351562500e+02" cType="0" res="-9.9000000000000000e+01" rms="0.0000000000000000e+00" purity="5.5524551868438721e-01" nType="0">
        <Node pos="l" depth="1" NCoef="0" IVar="6" Cut="1.7119578552246094e+02" cType="0" res="-9.9000000000000000e+01" rms="0.0000000000000000e+00" purity="6.8939244747161865e-01" nType="0">
          <Node pos="l" depth="2" NCoef="0" IVar="-1" Cut="0.0000000000000000e+00" cType="1" res="-9.9000000000000000e+01" rms="0.0000000000000000e+00" purity="1.0000000000000000e+00" nType="1"/>
          <Node pos="r" depth="2" NCoef="0" IVar="0" Cut="2.8073327541351318e+00" cType="1" res="-9.9000000000000000e+01" rms="0.0000000000000000e+00" purity="6.3761448860168457e-01" nType="0">
            <Node pos="l" depth="3" NCoef="0" IVar="-1" Cut="0.0000000000000000e+00" cType="1" res="-9.9000000000000000e+01" rms="0.0000000000000000e+00" purity="7.0524960756301880e-01" nType="1"/>
            <Node pos="r" depth="3" NCoef="0" IVar="-1" Cut="0.0000000000000000e+00" cType="1" res="-9.9000000000000000e+01" rms="0.0000000000000000e+00" purity="3.9864164590835571e-01" nType="-1"/>
          </Node>
        </Node>
        <Node pos="r" depth="1" NCoef="0" IVar="6" Cut="1.9922196960449219e+02" cType="1" res="-9.9000000000000000e+01" rms="0.0000000000000000e+00" purity="4.3060880899429321e-01" nType="0">
          <Node pos="l" depth="2" NCoef="0" IVar="2" Cut="4.9428348541259766e+00" cType="1" res="-9.9000000000000000e+01" rms="0.0000000000000000e+00" purity="4.8387375473976135e-01" nType="0">
            <Node pos="l" depth="3" NCoef="0" IVar="-1" Cut="0.0000000000000000e+00" cType="1" res="-9.9000000000000000e+01" rms="0.0000000000000000e+00" purity="6.6376692056655884e-01" nType="1"/>
            <Node pos="r" depth="3" NCoef="0" IVar="-1" Cut="0.0000000000000000e+00" cType="1" res="-9.9000000000000000e+01" rms="0.0000000000000000e+00" purity="2.9871311783790588e-01" nType="-1"/>
          </Node>
          <Node pos="r" depth="2" NCoef="0" IVar="-1" Cut="0.0000000000000000e+00" cType="1" res="-9.9000000000000000e+01" rms="0.0000000000000000e+00" purity="1.7310875654220581e-01" nType="-1"/>
        </Node>
      </Node>
    </BinaryTree>
    <BinaryTree type="DecisionTree" boostWeight="5.0441201880281861e-01" itree="37">
      <Node pos="s" depth="0" NCoef="0" IVar="0" Cut="2.1647512912750244e+00" cType="0" res="-9.9000000000000000e+01" rms="0.0000000000000000e+00" purity="5.6283819675445557e-01" nType="0">
        <Node pos="l" depth="1" NCoef="0" IVar="6" Cut="1.1479440307617188e+02" cType="0" res="-9.9000000000000000e+01" rms="0.0000000000000000e+00" purity="6.3523012399673462e-01" nType="0">
          <Node pos="l" depth="2" NCoef="0" IVar="-1" Cut="1.4119178771972656e+01" cType="0" res="-9.9000000000000000e+01" rms="0.0000000000000000e+00" purity="7.0511090755462646e-01" nType="1"/>
          <Node pos="r" depth="2" NCoef="0" IVar="2" Cut="5.2299919128417969e+00" cType="0" res="-9.9000000000000000e+01" rms="0.0000000000000000e+00" purity="4.0691855549812317e-01" nType="0">
            <Node pos="l" depth="3" NCoef="0" IVar="-1" Cut="0.0000000000000000e+00" cType="1" res="-9.9000000000000000e+01" rms="0.0000000000000000e+00" purity="6.6947913169860840e-01" nType="1"/>
            <Node pos="r" depth="3" NCoef="0" IVar="-1" Cut="0.0000000000000000e+00" cType="1" res="-9.9000000000000000e+01" rms="0.0000000000000000e+00" purity="1.2509335577487946e-01" nType="-1"/>
          </Node>
        </Node>
        <Node pos="r" depth="1" NCoef="0" IVar="1" Cut="2.5788660049438477e+00" cType="0" res="-9.9000000000000000e+01" rms="0.0000000000000000e+00" purity="3.3942681550979614e-01" nType="0">
          <Node pos="l" depth="2" NCoef="0" IVar="6" Cut="1.2594728851318359e+02" cType="0" res="-9.9000000000000000e+01" rms="0.0000000000000000e+00" purity="6.5218383073806763e-01" nType="0">
            <Node pos="l" depth="3" NCoef="0" IVar="-1" Cut="0.0000000000000000e+00" cType="1" res="-9.9000000000000000e+01" rms="0.0000000000000000e+00" purity="9.0705633163452148e-01" nType="1"/>
            <Node pos="r" depth="3" NCoef="0" IVar="-1" Cut="0.0000000000000000e+00" cType="1" res="-9.9000000000000000e+01" rms="0.0000000000000000e+00" purity="4.4080829620361328e-01" nType="-1"/>
          </Node>
          <Node pos="r" depth="2" NCoef="0" IVar="-1" Cut="1.3354525756835938e+02" cType="1" res="-9.9000000000000000e+01" rms="0.0000000000000000e+00" purity="2.0360533893108368e-01" nType="-1"/>
        </Node>
      </Node>
    </BinaryTree>
    <BinaryTree type="DecisionTree" boostWeight="2.1554122828336492e-01" itree="38">
      <Node pos="s" depth="0" NCoef="0" IVar="0" Cut="2.9349532127380371e+00" cType="0" res="-9.9000000000000000e+01" rms="0.0000000000000000e+00" purity="4.7343644499778748e-01" nType="0">
        <Node pos="l" depth="1" NCoef="0" IVar="-1" Cut="0.0000000000000000e+00" cType="1" res="-9.9000000000000000e+01" rms="0.0000000000000000e+00" purity="9.2723870277404785e-01" nType="1"/>
        <Node pos="r" depth="1" NCoef="0" IVar="2" Cut="6.7250976562500000e+00" cType="0" res="-9.9000000000000000e+01" rms="0.0000000000000000e+00" purity="4.5400297641754150e-01" nType="0">
          <Node pos="l" depth="2" NCoef="0" IVar="-1" Cut="0.0000000000000000e+00" cType="1" res="-9.9000000000000000e+01" rms="0.0000000000000000e+00" purity="8.7711840867996216e-01" nType="1"/>
          <Node pos="r" depth="2" NCoef="0" IVar="4" Cut="1.4144715309143066e+01" cType="0" res="-9.9000000000000000e+01" rms="0.0000000000000000e+00" purity="4.4123411178588867e-01" nType="0">
            <Node pos="l" depth="3" NCoef="0" IVar="-1" Cut="0.0000000000000000e+00" cType="1" res="-9.9000000000000000e+01" rms="0.0000000000000000e+00" purity="5.3173148632049561e-01" nType="1"/>
            <Node pos="r" depth="3" NCoef="0" IVar="-1" Cut="0.0000000000000000e+00" cType="1" res="-9.9000000000000000e+01" rms="0.0000000000000000e+00" purity="3.8232564926147461e-01" nType="-1"/>
          </Node>
        </Node>
      </Node>
    </BinaryTree>
    <BinaryTree type="DecisionTree" boostWeight="2.9020477719106080e-01" itree="39">
      <Node pos="s" depth="0" NCoef="0" IVar="5" Cut="6.0667620849609375e+02" cType="0" res="-9.9000000000000000e+01" rms="0.0000000000000000e+00" purity="5.6487143039703369e-01" nType="0">
        <Node pos="l" depth="1" NCoef="0" IVar="6" Cut="9.9537910461425781e+01" cType="0" res="-9.9000000000000000e+01" rms="0.0000000000000000e+00" purity="5.8740830421447754e-01" nType="0">
          <Node pos="l" depth="2" NCoef="0" IVar="-1" Cut="3.8980641365051270e+00" cType="1" res="-9.9000000000000000e+01" rms="0.0000000000000000e+00" purity="6.1507230997085571e-01" nType="1"/>
          <Node pos="r" depth="2" NCoef="0" IVar="2" Cut="5.8039655685424805e+00" cType="1" res="-9.9000000000000000e+01" rms="0.0000000000000000e+00" purity="2.9093384742736816e-01" nType="0">
            <Node pos="l" depth="3" NCoef="0" IVar="-1" Cut="0.0000000000000000e+00" cType="1" res="-9.9000000000000000e+01" rms="0.0000000000000000e+00" purity="6.0282522439956665e-01" nType="1"/>
            <Node pos="r" depth="3" NCoef="0" IVar="-1" Cut="0.0000000000000000e+00" cType="1" res="-9.9000000000000000e+01" rms="0.0000000000000000e+00" purity="1.2717093527317047e-01" nType="-1"/>
          </Node>
        </Node>
        <Node pos="r" depth="1" NCoef="0" IVar="-1" Cut="0.0000000000000000e+00" cType="1" res="-9.9000000000000000e+01" rms="0.0000000000000000e+00" purity="1.2317075580358505e-01" nType="-1"/>
      </Node>
    </BinaryTree>
    <BinaryTree type="DecisionTree" boostWeight="3.3307954895333536e-01" itree="40">
      <Node pos="s" depth="0" NCoef="0" IVar="5" Cut="1.7253598632812500e+03" cType="0" res="-9.9000000000000000e+01" rms="0.0000000000000000e+00" purity="4.4893667101860046e-01" nType="0">
        <Node pos="l" depth="1" NCoef="0" IVar="-1" Cut="0.0000000000000000e+00" cType="1" res="-9.9000000000000000e+01" rms="0.0000000000000000e+00" purity="1.0000000000000000e+00" nType="1"/>
        <Node pos="r" depth="1" NCoef="0" IVar="6" Cut="1.7890834045410156e+02" cType="0" res="-9.9000000000000000e+01" rms="0.0000000000000000e+00" purity="4.1681334376335144e-01" nType="0">
          <Node pos="l" depth="2" NCoef="0" IVar="-1" Cut="1.9810226440429688e+02" cType="1" res="-9.9000000000000000e+01" rms="0.0000000000000000e+00" purity="8.5862183570861816e-01" nType="1"/>
          <Node pos="r" depth="2" NCoef="0" IVar="-1" Cut="1.5887976074218750e+02" cType="1" res="-9.9000000000000000e+01" rms="0.0000000000000000e+00" purity="3.7818107008934021e-01" nType="-1"/>
        </Node>
      </Node>
    </BinaryTree>
    <BinaryTree type="DecisionTree" boostWeight="4.2733384672208319e-01" itree="41">
      <Node pos="s" depth="0" NCoef="0" IVar="1" Cut="-3.1953997611999512e+00" cType="0" res="-9.9000000000000000e+01" rms="0.0000000000000000e+00" purity="5.0318634510040283e-01" nType="0">
        <Node pos="l" depth="1" NCoef="0" IVar="5" Cut="1.1877829589843750e+03" cType="0" res="-9.9000000000000000e+01" rms="0.0000000000000000e+00" purity="5.7818853855133057e-01" nType="0">
          <Node pos="l" depth="2" NCoef="0" IVar="-1" Cut="1.6888662109375000e+03" cType="1" res="-9.9000000000000000e+01" rms="0.0000000000000000e+00" purity="8.7979578971862793e-01" nType="1"/>
          <Node pos="r" depth="2" NCoef="0" IVar="4" Cut="1.4252066612243652e+01" cType="1" res="-9.9000000000000000e+01" rms="0.0000000000000000e+00" purity="5.2310407161712646e-01" nType="0">
            <Node pos="l" depth="3" NCoef="0" IVar="-1" Cut="0.0000000000000000e+00" cType="1" res="-9.9000000000000000e+01" rms="0.0000000000000000e+00" purity="6.6948580741882324e-01" nType="1"/>
            <Node pos="r" depth="3" NCoef="0" IVar="-1" Cut="0.0000000000000000e+00" cType="1" res="-9.9000000000000000e+01" rms="0.0000000000000000e+00" purity="3.5071209073066711e-01" nType="-1"/>
          </Node>
        </Node>
        <Node pos="r" depth="1" NCoef="0" IVar="6" Cut="1.5824868774414062e+02" cType="0" res="-9.9000000000000000e+01" rms="0.0000000000000000e+00" purity="3.0021673440933228e-01" nType="0">
          <Node pos="l" depth="2" NCoef="0" IVar="-1" Cut="0.0000000000000000e+00" cType="1" res="-9.9000000000000000e+01" rms="0.0000000000000000e+00" purity="5.2639532089233398e-01" nType="1"/>
          <Node pos="r" depth="2" NCoef="0" IVar="4" Cut="1.1710830688476562e+01" cType="1" res="-9.9000000000000000e+01" rms="0.0000000000000000e+00" purity="2.5761127471923828e-01" nType="0">
            <Node pos="l" depth="3" NCoef="0" IVar="-1" Cut="0.0000000000000000e+00" cType="1" res="-9.9000000000000000e+01" rms="0.0000000000000000e+00" purity="5.5841964483261108e-01" nType="1"/>
            <Node pos="r" depth="3" NCoef="0" IVar="-1" Cut="0.0000000000000000e+00" cType="1" res="-9.9000000000000000e+01" rms="0.0000000000000000e+00" purity="2.0979958772659302e-01" nType="-1"/>
          </Node>
        </Node>
      </Node>
    </BinaryTree>
    <BinaryTree type="DecisionTree" boostWeight="3.1217806950551558e-01" itree="42">
      <Node pos="s" depth="0" NCoef="0" IVar="2" Cut="6.7250976562500000e+00" cType="0" res="-9.9000000000000000e+01" rms="0.0000000000000000e+00" purity="5.3460943698883057e-01" nType="0">
        <Node pos="l" depth="1" NCoef="0" IVar="-1" Cut="0.0000000000000000e+00" cType="1" res="-9.9000000000000000e+01" rms="0.0000000000000000e+00" purity="1.0000000000000000e+00" nType="1"/>
        <Node pos="r" depth="1" NCoef="0" IVar="5" Cut="2.0254185791015625e+03" cType="1" res="-9.9000000000000000e+01" rms="0.0000000000000000e+00" purity="5.1487666368484497e-01" nType="0">
          <Node pos="l" depth="2" NCoef="0" IVar="0" Cut="2.8057415485382080e+00" cType="1" res="-9.9000000000000000e+01" rms="0.0000000000000000e+00" purity="5.5307656526565552e-01" nType="0">
            <Node pos="l" depth="3" NCoef="0" IVar="-1" Cut="0.0000000000000000e+00" cType="1" res="-9.9000000000000000e+01" rms="0.0000000000000000e+00" purity="6.1437129974365234e-01" nType="1"/>
            <Node pos="r" depth="3" NCoef="0" IVar="-1" Cut="0.0000000000000000e+00" cType="1" res="-9.9000000000000000e+01" rms="0.0000000000000000e+00" purity="3.8855564594268799e-01" nType="-1"/>
          </Node>
          <Node pos="r" depth="2" NCoef="0" IVar="-1" Cut="0.0000000000000000e+00" cType="1" res="-9.9000000000000000e+01" rms="0.0000000000000000e+00" purity="1.3853347301483154e-01" nType="-1"/>
        </Node>
      </Node>
    </BinaryTree>
    <BinaryTree type="DecisionTree" boostWeight="3.0183575431839810e-01" itree="43">
      <Node pos="s" depth="0" NCoef="0" IVar="5" Cut="8.3680810546875000e+02" cType="0" res="-9.9000000000000000e+01" rms="0.0000000000000000e+00" purity="4.7927385568618774e-01" nType="0">
        <Node pos="l" depth="1" NCoef="0" IVar="3" Cut="5.7422285079956055e+00" cType="1" res="-9.9000000000000000e+01" rms="0.0000000000000000e+00" purity="5.2479869127273560e-01" nType="0">
          <Node pos="l" depth="2" NCoef="0" IVar="-1" Cut="1.4988552856445312e+02" cType="0" res="-9.9000000000000000e+01" rms="0.0000000000000000e+00" purity="6.0511589050292969e-01" nType="1"/>
          <Node pos="r" depth="2" NCoef="0" IVar="-1" Cut="6.1573138236999512e+00" cType="0" res="-9.9000000000000000e+01" rms="0.0000000000000000e+00" purity="3.2265275716781616e-01" nType="-1"/>
        </Node>
        <Node pos="r" depth="1" NCoef="0" IVar="6" Cut="8.9268226623535156e+01" cType="0" res="-9.9000000000000000e+01" rms="0.0000000000000000e+00" purity="3.6228853464126587e-01" nType="0">
          <Node pos="l" depth="2" NCoef="0" IVar="1" Cut="-3.2818071842193604e+00" cType="1" res="-9.9000000000000000e+01" rms="0.0000000000000000e+00" purity="3.9585906267166138e-01" nType="0">
            <Node pos="l" depth="3" NCoef="0" IVar="-1" Cut="0.0000000000000000e+00" cType="1" res="-9.9000000000000000e+01" rms="0.0000000000000000e+00" purity="8.2631582021713257e-01" nType="1"/>
            <Node pos="r" depth="3" NCoef="0" IVar="-1" Cut="0.0000000000000000e+00" cType="1" res="-9.9000000000000000e+01" rms="0.0000000000000000e+00" purity="3.4488123655319214e-01" nType="-1"/>
          </Node>
          <Node pos="r" depth="2" NCoef="0" IVar="-1" Cut="0.0000000000000000e+00" cType="1" res="-9.9000000000000000e+01" rms="0.0000000000000000e+00" purity="5.2940238267183304e-02" nType="-1"/>
        </Node>
      </Node>
    </BinaryTree>
    <BinaryTree type="DecisionTree" boostWeight="4.0116421293874049e-01" itree="44">
      <Node pos="s" depth="0" NCoef="0" IVar="2" Cut="6.0320849418640137e+00" cType="1" res="-9.9000000000000000e+01" rms="0.0000000000000000e+00" purity="5.1908057928085327e-01" nType="0">
        <Node pos="l" depth="1" NCoef="0" IVar="5" Cut="8.3031188964843750e+02" cType="0" res="-9.9000000000000000e+01" rms="0.0000000000000000e+00" purity="5.8696538209915161e-01" nType="0">
          <Node pos="l" depth="2" NCoef="0" IVar="-1" Cut="4.8176355361938477e+00" cType="1" res="-9.9000000000000000e+01" rms="0.0000000000000000e+00" purity="7.1055841445922852e-01" nType="1"/>
          <Node pos="r" depth="2" NCoef="0" IVar="-1" Cut="5.2558031082153320e+00" cType="1" res="-9.9000000000000000e+01" rms="0.0000000000000000e+00" purity="3.9889463782310486e-01" nType="-1"/>
        </Node>
        <Node pos="r" depth="1" NCoef="0" IVar="6" Cut="1.5472169494628906e+02" cType="0" res="-9.9000000000000000e+01" rms="0.0000000000000000e+00" purity="2.8754737973213196e-01" nType="0">
          <Node pos="l" depth="2" NCoef="0" IVar="-1" Cut="0.0000000000000000e+00" cType="1" res="-9.9000000000000000e+01" rms="0.0000000000000000e+00" purity="7.0132035017013550e-01" nType="1"/>
          <Node pos="r" depth="2" NCoef="0" IVar="4" Cut="1.2638372421264648e+01" cType="1" res="-9.9000000000000000e+01" rms="0.0000000000000000e+00" purity="2.2131539881229401e-01" nType="0">
            <Node pos="l" depth="3" NCoef="0" IVar="-1" Cut="0.0000000000000000e+00" cType="1" res="-9.9000000000000000e+01" rms="0.0000000000000000e+00" purity="5.0420111417770386e-01" nType="1"/>
            <Node pos="r" depth="3" NCoef="0" IVar="-1" Cut="0.0000000000000000e+00" cType="1" res="-9.9000000000000000e+01" rms="0.0000000000000000e+00" purity="1.1381268501281738e-01" nType="-1"/>
          </Node>
        </Node>
      </Node>
    </BinaryTree>
    <BinaryTree type="DecisionTree" boostWeight="3.3246629886671142e-01" itree="45">
      <Node pos="s" depth="0" NCoef="0" IVar="5" Cut="1.2420509033203125e+03" cType="0" res="-9.9000000000000000e+01" rms="0.0000000000000000e+00" purity="5.4438662528991699e-01" nType="0">
        <Node pos="l" depth="1" NCoef="0" IVar="4" Cut="1.4980465888977051e+01" cType="1" res="-9.9000000000000000e+01" rms="0.0000000000000000e+00" purity="7.8455018997192383e-01" nType="0">
          <Node pos="l" depth="2" NCoef="0" IVar="-1" Cut="1.2232335662841797e+02" cType="0" res="-9.9000000000000000e+01" rms="0.0000000000000000e+00" purity="9.5901757478713989e-01" nType="1"/>
          <Node pos="r" depth="2" NCoef="0" IVar="3" Cut="5.1041235923767090e+00" cType="0" res="-9.9000000000000000e+01" rms="0.0000000000000000e+00" purity="5.1041889190673828e-01" nType="0">
            <Node pos="l" depth="3" NCoef="0" IVar="-1" Cut="0.0000000000000000e+00" cType="1" res="-9.9000000000000000e+01" rms="0.0000000000000000e+00" purity="6.4726674556732178e-01" nType="1"/>
            <Node pos="r" depth="3" NCoef="0" IVar="-1" Cut="0.0000000000000000e+00" cType="1" res="-9.9000000000000000e+01" rms="0.0000000000000000e+00" purity="3.7088540196418762e-01" nType="-1"/>
          </Node>
        </Node>
        <Node pos="r" depth="1" NCoef="0" IVar="3" Cut="6.5082902908325195e+00" cType="0" res="-9.9000000000000000e+01" rms="0.0000000000000000e+00" purity="4.9620485305786133e-01" nType="0">
          <Node pos="l" depth="2" NCoef="0" IVar="-1" Cut="0.0000000000000000e+00" cType="1" res="-9.9000000000000000e+01" rms="0.0000000000000000e+00" purity="1.0000000000000000e+00" nType="1"/>
          <Node pos="r" depth="2" NCoef="0" IVar="2" Cut="5.0662012100219727e+00" cType="1" res="-9.9000000000000000e+01" rms="0.0000000000000000e+00" purity="4.6676513552665710e-01" nType="0">
            <Node pos="l" depth="3" NCoef="0" IVar="-1" Cut="0.0000000000000000e+00" cType="1" res="-9.9000000000000000e+01" rms="0.0000000000000000e+00" purity="5.8396095037460327e-01" nType="1"/>
            <Node pos="r" depth="3" NCoef="0" IVar="-1" Cut="0.0000000000000000e+00" cType="1" res="-9.9000000000000000e+01" rms="0.0000000000000000e+00" purity="3.8225108385086060e-01" nType="-1"/>
          </Node>
        </Node>
      </Node>
    </BinaryTree>
    <BinaryTree type="DecisionTree" boostWeight="2.6376554335942126e-01" itree="46">
      <Node pos="s" depth="0" NCoef="0" IVar="0" Cut="2.1614224910736084e+00" cType="1" res="-9.9000000000000000e+01" rms="0.0000000000000000e+00" purity="5.1360315084457397e-01" nType="0">
        <Node pos="l" depth="1" NCoef="0" IVar="0" Cut="2.0513873100280762e+00" cType="0" res="-9.9000000000000000e+01" rms="0.0000000000000000e+00" purity="7.6835083961486816e-01" nType="0">
          <Node pos="l" depth="2" NCoef="0" IVar="-1" Cut="1.1599095916748047e+02" cType="0" res="-9.9000000000000000e+01" rms="0.0000000000000000e+00" purity="9.0685993432998657e-01" nType="1"/>
          <Node pos="r" depth="2" NCoef="0" IVar="-1" Cut="0.0000000000000000e+00" cType="1" res="-9.9000000000000000e+01" rms="0.0000000000000000e+00" purity="4.0320631861686707e-01" nType="-1"/>
        </Node>
        <Node pos="r" depth="1" NCoef="0" IVar="3" Cut="6.3861141204833984e+00" cType="0" res="-9.9000000000000000e+01" rms="0.0000000000000000e+00" purity="4.7539913654327393e-01" nType="0">
          <Node pos="l" depth="2" NCoef="0" IVar="-1" Cut="1.6364028930664062e+01" cType="1" res="-9.9000000000000000e+01" rms="0.0000000000000000e+00" purity="8.2117825746536255e-01" nType="1"/>
          <Node pos="r" depth="2" NCoef="0" IVar="6" Cut="1.8392367553710938e+02" cType="0" res="-9.9000000000000000e+01" rms="0.0000000000000000e+00" purity="4.4690060615539551e-01" nType="0">
            <Node pos="l" depth="3" NCoef="0" IVar="-1" Cut="0.0000000000000000e+00" cType="1" res="-9.9000000000000000e+01" rms="0.0000000000000000e+00" purity="9.3411326408386230e-01" nType="1"/>
            <Node pos="r" depth="3" NCoef="0" IVar="-1" Cut="0.0000000000000000e+00" cType="1" res="-9.9000000000000000e+01" rms="0.0000000000000000e+00" purity="4.3025478720664978e-01" nType="-1"/>
          </Node>
        </Node>
      </Node>
    </BinaryTree>
    <BinaryTree type="DecisionTree" boostWeight="2.0860789090207188e-01" itree="47">
      <Node pos="s" depth="0" NCoef="0" IVar="4" Cut="1.2703214645385742e+01" cType="1" res="-9.9000000000000000e+01" rms="0.0000000000000000e+00" purity="5.4455697536468506e-01" nType="0">
        <Node pos="l" depth="1" NCoef="0" IVar="-1" Cut="2.4844806194305420e+00" cType="1" res="-9.9000000000000000e+01" rms="0.0000000000000000e+00" purity="6.8289572000503540e-01" nType="1"/>
        <Node pos="r" depth="1" NCoef="0" IVar="3" Cut="6.1912260055541992e+00" cType="0" res="-9.9000000000000000e+01" rms="0.0000000000000000e+00" purity="4.9251437187194824e-01" nType="0">
          <Node pos="l" depth="2" NCoef="0" IVar="0" Cut="2.2337906360626221e+00" cType="0" res="-9.9000000000000000e+01" rms="0.0000000000000000e+00" purity="7.5910162925720215e-01" nType="0">
            <Node pos="l" depth="3" NCoef="0" IVar="-1" Cut="0.0000000000000000e+00" cType="1" res="-9.9000000000000000e+01" rms="0.0000000000000000e+00" purity="1.0000000000000000e+00" nType="1"/>
            <Node pos="r" depth="3" NCoef="0" IVar="-1" Cut="0.0000000000000000e+00" cType="1" res="-9.9000000000000000e+01" rms="0.0000000000000000e+00" purity="4.4578343629837036e-01" nType="-1"/>
          </Node>
          <Node pos="r" depth="2" NCoef="0" IVar="-1" Cut="5.6392102241516113e+00" cType="1" res="-9.9000000000000000e+01" rms="0.0000000000000000e+00" purity="4.5775729417800903e-01" nType="-1"/>
        </Node>
      </Node>
    </BinaryTree>
    <BinaryTree type="DecisionTree" boostWeight="3.9203596444932731e-01" itree="48">
      <Node pos="s" depth="0" NCoef="0" IVar="5" Cut="1.3428499755859375e+03" cType="0" res="-9.9000000000000000e+01" rms="0.0000000000000000e+00" purity="5.1053100824356079e-01" nType="0">
        <Node pos="l" depth="1" NCoef="0" IVar="4" Cut="1.8383649826049805e+01" cType="1" res="-9.9000000000000000e+01" rms="0.0000000000000000e+00" purity="7.1891170740127563e-01" nType="0">
          <Node pos="l" depth="2" NCoef="0" IVar="-1" Cut="2.4825906753540039e+00" cType="1" res="-9.9000000000000000e+01" rms="0.0000000000000000e+00" purity="8.1866711378097534e-01" nType="1"/>
          <Node pos="r" depth="2" NCoef="0" IVar="-1" Cut="0.0000000000000000e+00" cType="1" res="-9.9000000000000000e+01" rms="0.0000000000000000e+00" purity="2.4705290794372559e-01" nType="-1"/>
        </Node>
